#ifndef WEIGHTS_H
#define WEIGHTS_H

#include <stdint.h>

// w1 shape: (512, 1)
static const float w1[512] = { -0.19495125f, 0.18941364f, 0.11969231f, -0.04590334f, 0.17773032f, 0.11102790f, -0.02694979f, -0.02022729f, -0.05159406f, 0.16038536f, -0.00842076f, -0.05378175f, -0.06135975f, -0.06665345f, 0.18743612f, 0.13192208f, 0.15918487f, 0.00050794f, 0.17865179f, 0.10421298f, -0.09991264f, -0.03440467f, 0.09444217f, 0.09285080f, -0.03198692f, -0.17726626f, -0.04098178f, 0.14218065f, -0.00781947f, -0.07836843f, -0.02785327f, -0.00780971f, -0.00121401f, 0.15131503f, -0.06270380f, -0.02226161f, 0.19393274f, -0.00026550f, -0.04633608f, 0.00498074f, 0.21096976f, 0.10116347f, 0.12955318f, -0.05760632f, 0.18583213f, -0.01532289f, -0.06505907f, -0.05622220f, -0.08282516f, -0.00052144f, -0.11145880f, -0.00052983f, 0.10037046f, -0.03544758f, 0.13245469f, -0.01002946f, -0.04742662f, 0.00568770f, -0.04945127f, 0.00392039f, -0.03323669f, 0.13903272f, 0.12078395f, -0.02545506f, -0.07630204f, -0.06208156f, 0.18233009f, -0.06854139f, -0.03783245f, 0.00869920f, 0.15646040f, 0.00799423f, -0.08105460f, -0.02459324f, 0.00002168f, -0.05799388f, -0.03445025f, 0.09036940f, 0.12674457f, 0.00120039f, -0.02622589f, 0.20807566f, 0.10245969f, 0.16256277f, -0.01578544f, -0.12050789f, -0.06726829f, -0.09350678f, 0.04504598f, -0.09568156f, 0.09674905f, -0.03915543f, -0.05768129f, -0.05576850f, -0.06037223f, -0.04191211f, -0.09817008f, -0.02485030f, 0.11198968f, -0.05046217f, 0.12222210f, 0.16771407f, 0.11348553f, -0.01385405f, -0.06090264f, -0.14548530f, -0.02074199f, -0.01195372f, -0.03006480f, -0.02635527f, 0.06333477f, 0.11131108f, -0.05292788f, -0.08500206f, 0.09153739f, -0.01364932f, 0.22955483f, -0.05033001f, 0.01340095f, -0.00012191f, -0.02028629f, 0.09795351f, -0.01992972f, 0.00054190f, -0.09599343f, -0.04181313f, 0.02376963f, -0.05046534f, -0.05643424f, -0.01815114f, -0.07389558f, -0.02796913f, 0.07248664f, 0.00337921f, -0.02315355f, 0.16863109f, -0.04904906f, -0.03071876f, -0.00474587f, -0.11114228f, -0.02992558f, -0.07822174f, 0.13414405f, -0.07890028f, -0.03934323f, 0.00582323f, -0.00382775f, -0.17594066f, -0.02655943f, 0.15401809f, -0.02513846f, -0.07252201f, -0.09761578f, 0.20020320f, -0.02606097f, 0.01163169f, -0.01569849f, 0.01666125f, 0.09423217f, 0.20819800f, 0.10253098f, 0.10233687f, -0.02827946f, -0.00121448f, 0.12611383f, 0.10811523f, 0.15541516f, 0.14099689f, 0.08262607f, -0.06158367f, 0.13346231f, -0.05150384f, -0.00245865f, -0.06730969f, 0.09824659f, 0.08166930f, -0.14659604f, -0.06608058f, 0.19267468f, -0.04818111f, 0.10203191f, -0.14009404f, -0.08612268f, -0.01183828f, 0.13282728f, 0.09664880f, -0.03226480f, 0.14136547f, -0.07988860f, 0.05732888f, -0.03307272f, -0.02668878f, -0.05400758f, -0.05092128f, -0.00198869f, 0.10183671f, -0.00853219f, 0.17593284f, -0.02748121f, -0.17724887f, -0.01458272f, 0.16751452f, 0.00273774f, 0.07695772f, 0.11301743f, 0.13690063f, -0.04497858f, -0.04287043f, -0.06041340f, 0.08818284f, -0.02554506f, -0.06101428f, -0.00787004f, -0.17054987f, -0.00839708f, 0.11913248f, 0.12194666f, 0.13224165f, -0.01059556f, -0.03258404f, -0.00191575f, 0.10355752f, -0.05623711f, 0.03688889f, 0.00617167f, 0.03968108f, -0.03397642f, 0.00064296f, -0.06392604f, -0.02276986f, -0.17826475f, 0.00787816f, -0.07310989f, 0.12922268f, -0.06060266f, -0.01832012f, -0.02687838f, 0.13651967f, 0.15864970f, 0.20489965f, 0.10710870f, 0.11974139f, 0.14615555f, 0.04210126f, -0.04288663f, -0.06623571f, -0.09926628f, -0.03539281f, -0.03034657f, -0.02035417f, -0.08789063f, -0.08448981f, 0.15623331f, -0.04634241f, 0.14185201f, 0.08201268f, 0.22655027f, -0.02415473f, 0.13687871f, 0.12940286f, -0.00941817f, -0.05523149f, 0.11688473f, 0.20695791f, -0.06762937f, -0.07728887f, 0.19690517f, -0.09701873f, 0.15383276f, -0.04650395f, -0.00638911f, 0.22025429f, -0.01692944f, 0.08128086f, -0.03846986f, 0.16238345f, -0.02731100f, 0.19283147f, -0.07093118f, 0.00698431f, 0.09149440f, -0.02000546f, -0.00876931f, 0.18536822f, 0.00403110f, 0.00018866f, -0.14142504f, -0.02409817f, -0.11160376f, 0.20493405f, -0.05219618f, 0.11452060f, -0.02690129f, -0.08045378f, -0.02812074f, -0.09024537f, 0.08022854f, -0.02538803f, 0.10041068f, -0.03928708f, -0.00383299f, -0.01953915f, 0.00814079f, 0.01063048f, -0.09292492f, -0.01887102f, -0.02518216f, 0.22422968f, 0.12344107f, 0.20246200f, 0.00944907f, -0.05866625f, -0.01527056f, 0.19556522f, -0.13051169f, 0.05518422f, 0.11791652f, 0.00779454f, 0.06971573f, -0.01361023f, -0.00158060f, 0.10747696f, 0.12622572f, -0.05408908f, 0.03982042f, -0.01271569f, 0.15421847f, -0.03531067f, 0.09431977f, -0.02091664f, -0.15972655f, -0.01608384f, 0.13722384f, 0.26362795f, -0.07845949f, -0.02886418f, 0.10908806f, -0.12608227f, 0.10202500f, 0.11747388f, -0.05053720f, -0.05371547f, -0.02241985f, -0.01953650f, -0.01223081f, 0.11255254f, -0.03179826f, 0.08284161f, -0.01676382f, -0.07796983f, -0.14238942f, -0.02300516f, 0.09737587f, 0.09700885f, 0.16237123f, 0.12624952f, 0.10134476f, -0.04893128f, 0.13439631f, 0.09742883f, -0.08182353f, -0.02480880f, -0.00020245f, 0.18428455f, -0.07108781f, 0.14905959f, -0.06415100f, -0.10048760f, -0.04527588f, -0.00188713f, 0.14373186f, 0.04464844f, -0.10528126f, 0.00266807f, 0.00125605f, 0.12048244f, -0.09520653f, -0.03531414f, 0.00009117f, -0.07056751f, 0.10156339f, -0.11987848f, 0.21991195f, 0.10010963f, 0.06259529f, -0.06186778f, -0.04109583f, 0.19864927f, -0.00611534f, -0.02755010f, -0.00613339f, 0.18655042f, 0.02155423f, 0.12060881f, 0.09518548f, -0.09594844f, 0.10747733f, 0.14076719f, -0.04251585f, -0.04553869f, -0.00106524f, 0.00286411f, -0.01374431f, 0.13768707f, 0.10792186f, -0.00956908f, -0.10231391f, -0.12998629f, -0.01755438f, 0.10262349f, -0.10283596f, 0.09744097f, -0.08102991f, 0.17591654f, -0.08637493f, 0.05743951f, -0.06358878f, 0.13253288f, -0.09939945f, -0.04750111f, -0.04452250f, 0.09717356f, -0.02885908f, -0.13973606f, -0.06215245f, 0.21536373f, 0.08785210f, 0.07518577f, 0.16899553f, -0.02402986f, -0.00897479f, -0.08126634f, 0.09681495f, -0.02626473f, -0.09371282f, -0.09422685f, -0.00479901f, 0.11501246f, 0.18814568f, -0.03099132f, 0.17453897f, -0.07670794f, -0.05720561f, 0.07263802f, -0.03582044f, 0.13404900f, -0.02653312f, 0.00036205f, 0.12384452f, 0.20874654f, -0.01947647f, -0.09747121f, 0.10001412f, -0.03658738f, 0.15710342f, -0.03434862f, 0.19701156f, -0.05288439f, 0.12885751f, -0.00202957f, -0.00806367f, 0.14685783f, -0.02892192f, 0.20684706f, -0.07077891f, -0.00397497f, -0.05726513f, -0.02228577f, -0.00959031f, 0.15093726f, -0.03702284f, 0.11539676f, 0.18842404f, -0.03110631f, 0.04626920f, 0.00635697f, 0.00023970f, -0.03408303f, -0.03697389f, -0.04902425f, 0.00005894f, 0.11359772f, -0.11552729f, -0.09565391f, -0.12502159f, 0.11446219f, -0.00430560f, -0.00740280f, -0.03625992f, -0.07534490f, -0.02103743f, -0.00682525f, 0.11322840f, -0.01901385f, -0.00362901f, -0.09402195f, -0.07300985f, -0.04189370f, 0.05034088f, -0.04017285f, 0.12778625f, -0.07796752f, -0.00352264f, 0.01632703f, -0.07066426f, 0.23005658f, 0.14964561f, 0.07389645f, -0.02513515f, 0.11052615f, -0.03408295f, 0.00035407f };

// b1 shape: (512,)
static const float b1[512] = { 0.00000000f, -0.01145101f, -0.08139490f, 0.00000000f, -0.01089523f, -0.07468117f, 0.00000000f, 0.00000000f, 0.00000000f, -0.01000192f, 0.00000000f, 0.00000000f, 0.00000000f, 0.00000000f, -0.00947870f, -0.04583464f, -0.00945955f, -0.00487836f, -0.01065139f, 0.13066594f, 0.00000000f, 0.00000000f, -0.00551142f, -0.06319627f, 0.00000000f, 0.00000000f, 0.00000000f, -0.01308305f, 0.00000000f, 0.00000000f, 0.00000000f, 0.00000000f, -0.00158773f, -0.01280934f, 0.00000000f, 0.00000000f, -0.01146062f, -0.00405082f, 0.00000000f, -0.00771523f, -0.00916963f, -0.06905978f, -0.04485106f, 0.00000000f, -0.05635186f, 0.00000000f, 0.00000000f, 0.00000000f, 0.00000000f, 0.00000000f, 0.00000000f, -0.00216228f, -0.06830722f, 0.00000000f, -0.00972856f, 0.00000000f, 0.00000000f, -0.00763014f, 0.00000000f, -0.00784076f, 0.00000000f, -0.05434312f, -0.00547821f, 0.00000000f, 0.00000000f, 0.00000000f, -0.00775682f, 0.00000000f, 0.15388764f, -0.01244461f, -0.06445870f, 0.14497595f, 0.00000000f, 0.00000000f, -0.00288191f, 0.00000000f, 0.00000000f, -0.06135773f, -0.08527612f, 0.11988096f, 0.00000000f, -0.01088881f, -0.06999253f, -0.05666266f, 0.00000000f, 0.00000000f, 0.00000000f, 0.00000000f, 0.13175556f, 0.00000000f, 0.10806085f, 0.00000000f, 0.00000000f, 0.00000000f, 0.00000000f, 0.14488631f, 0.00000000f, 0.00000000f, -0.07653248f, 0.00000000f, -0.01178497f, -0.01080727f, 0.06808699f, 0.00000000f, 0.00000000f, 0.00000000f, 0.16189878f, 0.00000000f, 0.15234938f, 0.00000000f, 0.11496153f, -0.00400140f, 0.00000000f, 0.00000000f, -0.06287441f, 0.00000000f, -0.01410157f, 0.00000000f, 0.16906270f, 0.00000000f, 0.00000000f, 0.10520757f, 0.00000000f, -0.00534058f, 0.00000000f, 0.00000000f, 0.13231619f, 0.00000000f, 0.00000000f, 0.00000000f, 0.00000000f, 0.00000000f, 0.11990458f, -0.00746940f, 0.00000000f, -0.05074788f, 0.00000000f, 0.00000000f, 0.00000000f, 0.00000000f, 0.00000000f, 0.00000000f, -0.04050022f, 0.00000000f, 0.00000000f, -0.00847223f, 0.00000000f, 0.00000000f, 0.00000000f, -0.00696124f, 0.00000000f, 0.00000000f, 0.00000000f, -0.00768401f, 0.00000000f, -0.01427682f, 0.00000000f, 0.14572437f, -0.06421887f, -0.01329473f, -0.02961537f, -0.00624821f, 0.00000000f, -0.00327555f, -0.04354313f, -0.07360277f, -0.05760765f, 0.03054211f, -0.05613264f, 0.00000000f, -0.00781688f, 0.00000000f, 0.00000000f, 0.00000000f, -0.06695041f, -0.05563845f, 0.00000000f, 0.00000000f, -0.01426583f, 0.00000000f, -0.00597285f, 0.00000000f, 0.00000000f, 0.00000000f, -0.04628885f, -0.06595276f, 0.00000000f, -0.00469626f, 0.00000000f, 0.10060003f, 0.00000000f, 0.00000000f, 0.00000000f, 0.17126022f, 0.00000000f, -0.06937991f, 0.00000000f, -0.03214831f, 0.00000000f, 0.00000000f, 0.00000000f, -0.01036306f, -0.00724564f, -0.05246612f, -0.00621763f, -0.00590777f, 0.00000000f, 0.00000000f, 0.00000000f, -0.06009430f, 0.00000000f, 0.00000000f, 0.00000000f, 0.00000000f, 0.00000000f, -0.08020701f, -0.00734303f, -0.03548100f, 0.00000000f, 0.00000000f, 0.00000000f, -0.00551623f, 0.00000000f, 0.14473262f, -0.00953760f, 0.11161332f, 0.00000000f, -0.00699424f, 0.00000000f, 0.00000000f, 0.00000000f, -0.01124969f, 0.00000000f, -0.08704791f, 0.00000000f, 0.00000000f, 0.00000000f, -0.09193445f, -0.01290066f, -0.02841117f, -0.07299124f, -0.08159038f, -0.00621316f, 0.11030331f, 0.00000000f, 0.00000000f, 0.00000000f, 0.00000000f, 0.00000000f, 0.00000000f, 0.00000000f, 0.00000000f, -0.01021519f, 0.00000000f, -0.00862054f, -0.05506666f, -0.02123032f, 0.00000000f, 0.00765162f, -0.00769877f, 0.00000000f, 0.00000000f, -0.07995983f, -0.03636396f, 0.00000000f, 0.00000000f, -0.01558884f, 0.00000000f, -0.01308377f, 0.00000000f, 0.14716864f, -0.00929080f, 0.00000000f, -0.05547132f, 0.00000000f, -0.01121763f, 0.00000000f, 0.01421230f, 0.00000000f, 0.14206189f, -0.01076516f, 0.00000000f, 0.00000000f, -0.01472731f, -0.00808362f, -0.00278611f, 0.00000000f, 0.00000000f, 0.00000000f, -0.01292763f, 0.00000000f, -0.07791327f, 0.00000000f, 0.00000000f, 0.00000000f, 0.00000000f, 0.03281165f, 0.00000000f, -0.06848437f, 0.00000000f, 0.00000000f, 0.00000000f, -0.01130164f, -0.01347108f, 0.00000000f, 0.00000000f, 0.15033442f, -0.01672404f, -0.08428837f, -0.01026674f, -0.01276053f, 0.00000000f, 0.00000000f, -0.01910010f, 0.00000000f, 0.14067839f, -0.00659367f, -0.01065347f, 0.13988850f, 0.15917799f, -0.00199973f, -0.00831932f, -0.00549315f, 0.00000000f, 0.11326353f, 0.17777799f, -0.01989519f, 0.00000000f, -0.03212398f, 0.17418274f, 0.00000000f, 0.15734039f, -0.00597613f, -0.02142379f, 0.00000000f, 0.00000000f, -0.07431333f, 0.00000000f, -0.06941620f, -0.07997262f, 0.00000000f, 0.00000000f, 0.00000000f, 0.00000000f, 0.00000000f, -0.07682197f, 0.00000000f, -0.05646559f, 0.00000000f, 0.00000000f, 0.00000000f, 0.00000000f, -0.06623213f, -0.06625206f, -0.00938335f, 0.00137864f, -0.06912082f, 0.00000000f, -0.04696432f, -0.06637682f, 0.00000000f, 0.00000000f, -0.00527414f, -0.01265026f, 0.00000000f, -0.01145842f, 0.00000000f, 0.00000000f, 0.00000000f, 0.00000000f, -0.02356527f, 0.07485182f, 0.00000000f, -0.00605755f, -0.00405519f, -0.08146263f, 0.00000000f, 0.00000000f, 0.13433665f, 0.00000000f, -0.06911717f, 0.00000000f, -0.00733499f, -0.03406210f, 0.10950628f, 0.00000000f, 0.00000000f, -0.01830869f, 0.00000000f, 0.00000000f, 0.00000000f, -0.01139469f, 0.15637681f, -0.01027063f, -0.06576976f, 0.00000000f, -0.07337134f, -0.02370398f, 0.00000000f, 0.00000000f, 0.00000000f, 0.15252839f, 0.00000000f, -0.01027351f, -0.07366937f, 0.00000000f, 0.00000000f, 0.00000000f, 0.15716012f, -0.07021506f, 0.00000000f, 0.07180422f, 0.00000000f, -0.06076404f, 0.00000000f, 0.11434671f, 0.00000000f, -0.04533358f, 0.00000000f, 0.00000000f, 0.00000000f, -0.06609282f, 0.00000000f, 0.00000000f, 0.00000000f, -0.00888742f, -0.06001996f, 0.05621571f, -0.01059654f, 0.00000000f, 0.00000000f, 0.00000000f, -0.06671604f, 0.00000000f, 0.00000000f, 0.00000000f, 0.00000000f, 0.02511827f, -0.01176620f, 0.00000000f, -0.00899513f, 0.00000000f, 0.00000000f, 0.13263018f, 0.00000000f, -0.09028798f, 0.00000000f, -0.00100665f, 0.11229686f, -0.01597423f, 0.00000000f, 0.00000000f, -0.06821890f, 0.00000000f, -0.00765818f, 0.00000000f, -0.01167587f, 0.00000000f, -0.04443009f, 0.00000000f, 0.00000000f, -0.01771265f, 0.00000000f, -0.01291516f, 0.00000000f, 0.15005341f, 0.00000000f, 0.00000000f, 0.00000000f, -0.06191286f, 0.14371420f, -0.00678307f, -0.01170066f, 0.00000000f, 0.13932323f, 0.16256100f, -0.00156580f, 0.00000000f, 0.00000000f, 0.00000000f, -0.00378415f, -0.07756597f, 0.00000000f, 0.00000000f, 0.00000000f, -0.07837725f, 0.00000000f, 0.00000000f, 0.00000000f, 0.00000000f, 0.13432826f, 0.00000000f, -0.07637142f, 0.00000000f, 0.06402103f, 0.00000000f, 0.00000000f, 0.00000000f, -0.03416535f, 0.00000000f, -0.00909304f, 0.00000000f, 0.00000000f, 0.17861652f, 0.00000000f, -0.02306859f, -0.00643541f, -0.05112801f, 0.00000000f, -0.07596061f, 0.00000000f, -0.00585963f };

// w2 shape: (256, 512)
static const float w2[131072] = { 0.00928293f, -0.14551520f, -0.07531191f, -0.05518501f, -0.13187478f, -0.04678619f, 0.01825076f, -0.00875115f, -0.03460511f, -0.09806971f, 0.15544164f, 0.06437895f, -0.01821367f, -0.07332149f, -0.11036899f, -0.09784663f, -0.00978839f, 0.01537345f, -0.01627837f, -0.00115357f, 0.00290729f, 0.05699398f, -0.04873737f, -0.05509812f, -0.01006285f, -0.01153638f, -0.00929019f, -0.13088357f, -0.07415395f, -0.02208506f, -0.06421456f, 0.06942362f, -0.10837559f, -0.10264692f, -0.02330516f, 0.00717453f, -0.14644530f, 0.03586519f, -0.05765788f, 0.11768034f, -0.12363771f, 0.08830831f, -0.01236571f, 0.01950891f, -0.12467623f, 0.09286226f, -0.05055252f, -0.06445876f, -0.04844374f, -0.03186863f, 0.03635398f, 0.04454159f, -0.06427834f, 0.08138430f, -0.14147265f, -0.10284568f, 0.11452769f, 0.01263799f, 0.06683382f, -0.04758668f, 0.04566933f, -0.00359154f, -0.09830621f, -0.06292930f, -0.01087463f, 0.00532063f, -0.20316851f, 0.01740948f, 0.15292808f, 0.01419332f, 0.02182666f, 0.11582490f, -0.03719874f, -0.09872896f, -0.04965534f, -0.09980208f, -0.03597255f, -0.02170541f, -0.05230559f, 0.19477871f, -0.05544916f, -0.04143289f, -0.04451073f, -0.04549715f, -0.08633711f, -0.10639360f, -0.02898910f, 0.00503016f, 0.11022388f, -0.09506974f, 0.10551615f, -0.03291109f, -0.06174983f, -0.03894482f, -0.11420611f, 0.02988700f, -0.00046450f, -0.02043818f, -0.05539016f, 0.10812047f, -0.19224945f, -0.08180753f, 0.07146580f, 0.05136062f, 0.00611925f, -0.00436422f, 0.19633050f, -0.06995154f, 0.00605963f, -0.07081705f, 0.06116826f, -0.01490150f, 0.05087980f, -0.06043318f, -0.04840471f, -0.07421690f, -0.06458908f, -0.09188496f, 0.11379610f, -0.15173624f, -0.11217653f, 0.07518811f, 0.05972958f, -0.06784568f, 0.01166679f, -0.11092409f, -0.00722359f, -0.04394002f, -0.10455084f, 0.07408484f, -0.02027439f, -0.09492058f, 0.13988385f, 0.03401068f, -0.01403770f, -0.09007588f, 0.10181138f, 0.00075950f, 0.04660890f, -0.03200211f, 0.07590885f, 0.01861489f, -0.00793061f, 0.00959108f, 0.04087423f, -0.16121784f, 0.01464497f, 0.11573866f, -0.05772814f, -0.07875737f, -0.06528953f, -0.00546940f, -0.01806094f, -0.15303423f, 0.02336537f, -0.10170291f, -0.01858696f, 0.16648144f, 0.12216438f, -0.12293819f, -0.05308072f, -0.02848967f, -0.06236468f, 0.01259104f, -0.07315364f, -0.09375821f, -0.08310340f, -0.00071502f, -0.01093110f, 0.07919567f, -0.22024083f, 0.01407230f, 0.01093528f, 0.05659047f, 0.00911578f, 0.00459944f, -0.05961947f, -0.04707049f, -0.21905901f, 0.03763379f, -0.15998276f, 0.10955317f, -0.05864571f, -0.06683152f, 0.00580067f, 0.06329601f, 0.05116997f, -0.04799614f, -0.04995407f, 0.15335655f, -0.10824619f, 0.00047963f, -0.10417550f, 0.09015826f, -0.01614029f, -0.08260493f, 0.03806955f, -0.09154060f, 0.13777016f, 0.01850941f, 0.05573262f, -0.10680114f, -0.02606703f, 0.12713945f, -0.13536233f, -0.01989446f, -0.07874779f, -0.02488475f, 0.03842691f, -0.09124394f, 0.00617612f, -0.01849116f, -0.07566126f, 0.04596509f, -0.05384303f, 0.00089512f, -0.20962527f, 0.03801873f, 0.07193518f, 0.04701836f, -0.06236366f, -0.10560595f, 0.06732573f, 0.01809076f, -0.00936804f, 0.06167900f, 0.05713885f, -0.04857986f, -0.03569508f, 0.00861377f, 0.04744366f, -0.05168100f, -0.07160068f, -0.01417386f, -0.02217229f, 0.04812329f, 0.05293731f, -0.00328631f, -0.14023724f, -0.17766863f, 0.03625260f, -0.02341093f, -0.05053314f, 0.01362246f, 0.08477685f, -0.06055107f, -0.06000455f, -0.14768741f, -0.08877382f, 0.02541073f, 0.02450087f, -0.00444603f, -0.18454435f, 0.04790272f, -0.14991446f, 0.03146736f, -0.07143811f, 0.03223921f, -0.06358807f, -0.07398222f, 0.08894505f, -0.11129215f, -0.00362192f, -0.07255942f, -0.09735805f, 0.07607529f, -0.16711980f, 0.02585406f, -0.08560926f, 0.00147296f, 0.12080707f, -0.01568207f, 0.12124607f, -0.01373540f, 0.01480177f, -0.02261504f, 0.09682079f, -0.03169577f, 0.12959506f, 0.17461100f, -0.14156799f, 0.03366330f, -0.04342828f, -0.12032741f, 0.12778077f, -0.09843954f, 0.11576519f, -0.01791514f, 0.02807700f, -0.16360831f, -0.12218996f, 0.10143361f, 0.00219813f, -0.02959575f, -0.01229169f, 0.02801859f, -0.01560789f, 0.07090386f, 0.05916670f, -0.00169403f, -0.11797184f, 0.06775284f, -0.02739153f, -0.05282703f, 0.00542746f, -0.14319907f, 0.06429526f, -0.14928029f, 0.01438235f, -0.02185899f, 0.02884596f, 0.03508630f, -0.06387831f, -0.11576707f, 0.09944224f, 0.08210097f, -0.20684209f, 0.03936464f, 0.12861927f, 0.14805852f, -0.01445776f, -0.11735757f, -0.05379781f, 0.08346293f, 0.02970864f, 0.15429595f, -0.20138375f, -0.07293971f, -0.03746777f, 0.02554812f, 0.09642150f, 0.10078500f, -0.17533402f, -0.19952206f, 0.02454831f, 0.07160600f, -0.12324581f, 0.02494999f, 0.06032576f, -0.03364860f, 0.05753487f, 0.05101567f, -0.00098381f, -0.07224719f, -0.01817827f, 0.04665937f, -0.04588658f, 0.05141120f, 0.02379339f, -0.07280511f, 0.01240491f, -0.00547958f, 0.09656775f, -0.11515705f, -0.11680909f, 0.07930292f, -0.02552626f, -0.05727584f, -0.19944128f, 0.02134636f, -0.12665999f, 0.11798345f, 0.01581908f, -0.09083177f, 0.07133036f, -0.01324165f, -0.05626201f, -0.01771224f, 0.00387981f, 0.00618199f, -0.09544471f, -0.08803215f, 0.12328366f, 0.00743312f, 0.06138613f, 0.01201347f, 0.02064595f, -0.05606554f, 0.05548890f, 0.02141061f, -0.03965579f, -0.00303023f, -0.07841121f, -0.09612785f, 0.05027794f, 0.10266642f, -0.11477760f, -0.12909099f, -0.01946812f, -0.01563575f, -0.09612212f, -0.12257508f, 0.06407353f, -0.13333759f, 0.01489314f, -0.13380349f, 0.02275637f, -0.04725502f, 0.00027074f, -0.01705673f, 0.04428342f, 0.10667280f, 0.01943661f, -0.04829951f, -0.06472831f, -0.00082386f, -0.02828405f, 0.06640816f, 0.10146514f, -0.05936744f, -0.07658610f, 0.04431820f, -0.12862174f, -0.01061505f, -0.07747329f, 0.00469020f, -0.03457040f, -0.01760697f, 0.03572535f, -0.01762961f, -0.03649954f, 0.02594804f, 0.07255518f, -0.06244258f, 0.03912190f, -0.28996804f, 0.08601554f, 0.05593943f, -0.08969237f, 0.06100634f, -0.03789969f, 0.04612625f, 0.03153491f, -0.03198102f, -0.12147916f, -0.09463937f, -0.01153975f, 0.02867663f, -0.06400975f, 0.06962112f, -0.01709943f, 0.04734201f, -0.08057407f, 0.04146935f, 0.06207015f, -0.03167506f, -0.03309303f, 0.01369541f, -0.08723021f, -0.26072505f, -0.07179360f, 0.05296273f, -0.05419665f, 0.01224710f, -0.18342425f, 0.09308746f, -0.08428364f, -0.06738482f, -0.14042300f, -0.09809040f, 0.00879312f, -0.16660169f, 0.06443320f, -0.20570564f, 0.03797349f, 0.07794535f, -0.04759715f, -0.03849790f, -0.04934091f, 0.00265185f, 0.07408985f, -0.02357507f, -0.02625001f, -0.02834339f, 0.15969689f, 0.05185806f, -0.01937268f, -0.00557138f, 0.05486607f, -0.06923302f, -0.03559905f, 0.00324667f, 0.09573244f, 0.05348066f, -0.00205392f, -0.05669295f, -0.01271241f, 0.06421931f, 0.01442995f, -0.02629999f, 0.11078898f, 0.08381109f, -0.02269813f, -0.10577030f, 0.03817185f, 0.01278484f, 0.03851407f, -0.02160303f, 0.04541470f, -0.06670830f, -0.12568220f, -0.00276848f, 0.02518342f, 0.02685042f, -0.08127543f, -0.13050570f, -0.06854562f, -0.05526087f, 0.01960280f, 0.06020554f, 0.01997704f, 0.07643182f, 0.04208468f, 0.06929754f, -0.04551519f, 0.01362538f, 0.07219865f, 0.02095141f, 0.03177506f, -0.04213347f, -0.07232250f, 0.10485484f, -0.04645306f, -0.03564360f, -0.01767877f, 0.04580875f, 0.16291218f, 0.06939629f, -0.05128701f, 0.05433704f, 0.11803084f, 0.05958264f, -0.13379599f, -0.01560513f, 0.13592656f, -0.19571903f, -0.09227471f, -0.00878148f, 0.02008690f, 0.15610613f, 0.00204777f, 0.05538555f, 0.08536438f, 0.08092339f, -0.03928838f, -0.05332885f, 0.10491122f, 0.00793243f, 0.12236658f, -0.04529860f, -0.01498817f, 0.02909655f, 0.01543363f, -0.00347571f, 0.10066575f, -0.02125310f, 0.03187449f, -0.00482319f, -0.07787885f, 0.04987239f, -0.01850910f, -0.15349993f, 0.01769140f, 0.09028812f, 0.03535305f, 0.04337252f, 0.09192251f, 0.00281898f, 0.04755221f, 0.02738950f, -0.05524920f, -0.00453016f, -0.10176881f, 0.05460612f, 0.02232158f, -0.03341831f, 0.07144697f, 0.00357408f, 0.12346145f, -0.11599719f, -0.02887605f, 0.02362530f, 0.06117978f, 0.00590133f, 0.04768826f, 0.13716228f, 0.01093122f, -0.00156075f, -0.01843282f, -0.14300789f, -0.00607768f, -0.01559113f, -0.04736196f, 0.08519448f, -0.03592846f, 0.04032820f, 0.01039097f, -0.03194182f, 0.02985177f, -0.04900499f, -0.03298082f, 0.00534875f, 0.05607422f, -0.02509494f, 0.02922101f, -0.06299350f, -0.08263519f, 0.01496610f, 0.10271484f, -0.00666496f, 0.00885964f, -0.00577902f, 0.01014584f, 0.01864804f, -0.02557811f, -0.08265291f, -0.07630175f, 0.10296489f, -0.11413557f, -0.07550128f, -0.00466009f, 0.03625999f, 0.05271320f, -0.01989832f, -0.06158348f, -0.03827517f, -0.01342091f, -0.08133998f, 0.06530602f, 0.02931678f, -0.00065984f, -0.04265788f, -0.05745873f, -0.01918937f, -0.03287455f, 0.03072505f, -0.03315527f, 0.01178014f, 0.05549252f, -0.02518404f, -0.01500729f, -0.08251057f, 0.07793383f, -0.02915757f, 0.02495321f, 0.05655607f, 0.00884487f, 0.08772440f, 0.09991027f, -0.08090162f, -0.02383166f, -0.04558879f, 0.00609470f, -0.05011517f, 0.11367669f, -0.07047064f, -0.02789053f, 0.03142687f, -0.09435653f, -0.07238722f, -0.05347617f, 0.04296754f, -0.03076783f, -0.00687707f, -0.04844105f, 0.03327090f, 0.10847254f, -0.00283575f, 0.02447218f, -0.06547570f, 0.02634813f, 0.20684554f, 0.04925128f, 0.09812276f, 0.02581625f, 0.01379991f, 0.00724454f, 0.11722564f, 0.08648231f, 0.04263076f, -0.01329490f, -0.09454642f, 0.14523096f, -0.01665180f, 0.05551841f, -0.01687424f, 0.02882195f, -0.02631317f, 0.06804365f, 0.04288593f, 0.00159390f, -0.00079445f, 0.05466982f, -0.04417390f, -0.12740166f, 0.04275046f, 0.01069983f, 0.05924039f, -0.06948452f, 0.08644854f, -0.06644616f, -0.03206698f, -0.01873270f, 0.02851156f, 0.06211479f, 0.01319859f, 0.00432247f, -0.03051602f, -0.01934465f, 0.09472562f, 0.04380004f, 0.00214585f, 0.02803583f, -0.02924174f, -0.05946459f, -0.03631553f, 0.04499106f, 0.15523945f, -0.03891804f, 0.00610046f, -0.01755878f, -0.17727168f, 0.02876455f, -0.01568180f, -0.04492227f, 0.02306757f, -0.04021249f, 0.13450797f, 0.12087431f, 0.02459789f, 0.09720463f, 0.05670189f, -0.08127220f, -0.00807446f, 0.08169816f, 0.04089654f, 0.04327489f, -0.02060340f, -0.08133970f, 0.08904812f, 0.01555529f, -0.01738364f, 0.02568659f, 0.12511632f, 0.09200843f, 0.06209475f, 0.02608122f, -0.04526391f, -0.03778256f, -0.04507616f, 0.06921300f, -0.10437465f, -0.06449642f, -0.03038877f, 0.03228124f, 0.04147891f, -0.05198241f, 0.16847759f, 0.10547416f, -0.04680097f, -0.00074607f, 0.07098939f, -0.10814797f, -0.05929395f, -0.00480825f, -0.00901975f, 0.03301985f, 0.03274204f, 0.03873829f, 0.15574121f, 0.12713704f, 0.13420354f, 0.06322259f, 0.24562700f, -0.03023644f, 0.16591677f, -0.08004534f, -0.06510897f, 0.07543176f, 0.00796863f, 0.01756181f, -0.08017883f, -0.07144983f, 0.14212260f, -0.06713853f, 0.02965459f, 0.09138393f, 0.04806276f, -0.04386930f, 0.13986056f, 0.01326263f, 0.14014709f, -0.12630475f, -0.00629322f, 0.06423918f, 0.08816751f, 0.01031135f, -0.00005110f, -0.04690408f, 0.04364552f, 0.09344716f, 0.05275481f, 0.05544905f, -0.05920254f, -0.03157765f, -0.02042573f, 0.02563773f, -0.01283709f, 0.19064471f, -0.03443735f, -0.02450675f, 0.09135278f, -0.01626890f, -0.00188868f, 0.08486336f, -0.03618284f, -0.00790285f, -0.05083052f, -0.02467371f, 0.15908195f, -0.03557510f, 0.07951522f, -0.00102547f, 0.00391941f, 0.06653896f, -0.07231192f, -0.00623537f, 0.15517791f, 0.17997116f, 0.02902797f, 0.05215921f, -0.01689769f, -0.02929554f, 0.16638494f, 0.01567006f, 0.08076962f, 0.00450762f, 0.02720156f, -0.01186866f, 0.06477142f, 0.01186626f, 0.04228828f, -0.00398689f, -0.00848113f, 0.08439815f, 0.11325396f, 0.02891223f, 0.07236724f, -0.07993144f, 0.01900432f, -0.09240494f, 0.07290579f, 0.08656333f, -0.07254297f, -0.08944760f, -0.04480693f, -0.01383357f, -0.02060698f, 0.04179495f, -0.08858336f, -0.04479977f, 0.01677073f, -0.03761259f, -0.03703210f, -0.05977694f, -0.02049760f, 0.10396523f, 0.04720030f, -0.15425795f, -0.05481716f, -0.07611639f, -0.04322097f, 0.01383935f, -0.01720351f, 0.07144475f, -0.02789794f, 0.04230118f, 0.09479253f, 0.01583951f, -0.09715431f, 0.12283944f, -0.06864326f, 0.09752840f, 0.03240103f, 0.06514783f, -0.00412148f, -0.00276049f, 0.03531598f, 0.04978213f, -0.12321270f, 0.01278493f, -0.09529626f, -0.02331776f, -0.03756731f, 0.16801398f, 0.05750613f, 0.01546684f, 0.02816363f, 0.00765108f, 0.05352967f, -0.08127414f, -0.04241597f, 0.05902036f, -0.01803049f, -0.04575931f, 0.04941410f, 0.00305762f, -0.05772403f, 0.06870474f, 0.08240953f, 0.04377054f, -0.06695700f, 0.01449310f, -0.14459305f, -0.00101032f, 0.06529886f, 0.03356459f, 0.00504292f, -0.08576454f, 0.01988907f, -0.04508819f, -0.02465614f, -0.10884235f, 0.00154359f, -0.02739632f, -0.00206707f, -0.05466928f, 0.04440033f, 0.05646187f, 0.07316905f, -0.12597880f, -0.04201588f, 0.00016953f, 0.04858588f, -0.02129328f, -0.06328044f, 0.00167342f, 0.13971934f, 0.03624500f, 0.10087144f, 0.11529178f, -0.06917872f, -0.03822567f, -0.05175777f, -0.06091811f, -0.04098576f, 0.13799948f, -0.01701982f, -0.02501433f, -0.06027978f, 0.21418113f, -0.09376522f, 0.10148492f, -0.02340364f, -0.03347648f, -0.06083978f, -0.07344397f, -0.05930944f, -0.01625137f, -0.05258877f, -0.00743255f, 0.17734544f, -0.05400762f, -0.00011993f, -0.05236581f, 0.01987191f, 0.02313411f, 0.05382003f, 0.03036034f, -0.07378004f, 0.11819331f, 0.07034910f, 0.07168737f, 0.03471192f, -0.03487684f, 0.02424104f, -0.08287425f, 0.01232384f, 0.00463166f, 0.00615636f, 0.12387662f, 0.01801895f, 0.02225287f, 0.12729116f, 0.03815821f, 0.01183874f, -0.07402529f, -0.06082194f, -0.07572840f, -0.06045934f, 0.01362831f, 0.00705831f, -0.08555212f, 0.00718069f, 0.09713676f, 0.04151064f, 0.01180356f, -0.07647422f, 0.00014964f, 0.05907822f, 0.03877933f, -0.16371676f, -0.05542670f, 0.05025287f, -0.08663227f, 0.01110512f, 0.01243104f, 0.06853738f, 0.02563300f, -0.04191699f, 0.06417821f, -0.07189962f, -0.08607063f, 0.05713106f, 0.04275225f, 0.03516915f, 0.02117265f, -0.10558983f, -0.05612550f, 0.04661880f, -0.04125240f, 0.02512321f, 0.04352320f, -0.00871321f, 0.02366819f, 0.02451546f, 0.00673196f, 0.00847378f, 0.09631065f, -0.01899622f, -0.01415075f, 0.03265654f, -0.07017121f, 0.10511230f, 0.01151932f, -0.05696430f, -0.07613743f, -0.06322093f, 0.09958834f, -0.02401022f, 0.13316700f, -0.02343312f, 0.02862317f, 0.14216827f, -0.06881568f, 0.06882476f, 0.04749369f, -0.01624063f, 0.04105069f, 0.01490716f, -0.04474700f, 0.01784123f, 0.07434575f, 0.02942051f, 0.07527690f, 0.04345693f, -0.01134119f, 0.01929823f, -0.03438242f, 0.02410374f, 0.01324833f, 0.04062083f, 0.02902979f, 0.04680045f, 0.09487485f, -0.00075343f, 0.03122538f, 0.02904375f, 0.15581539f, -0.02449428f, -0.03392312f, -0.00520081f, -0.04754987f, 0.01213845f, -0.06751631f, -0.02969922f, -0.03980744f, 0.01942494f, 0.02900028f, 0.06213173f, 0.01184854f, 0.00298732f, -0.16311538f, 0.09357108f, 0.04814244f, 0.03183847f, 0.07676445f, 0.04425929f, 0.11007599f, 0.04431168f, 0.10645653f, 0.06579483f, 0.14254092f, -0.08311954f, -0.01069151f, 0.04724893f, -0.03554795f, 0.06823451f, -0.05344051f, -0.09007317f, -0.05822468f, 0.04154115f, 0.00155909f, 0.08852224f, -0.06533466f, 0.12633666f, -0.05427800f, -0.06804744f, 0.13237515f, 0.09966963f, 0.07758188f, -0.11049001f, 0.06614728f, -0.06604484f, 0.05486515f, -0.06421020f, -0.04121238f, -0.04006518f, 0.04126763f, 0.01814257f, -0.02855322f, -0.02061369f, -0.02395996f, 0.08652444f, 0.08374271f, 0.06889015f, 0.06726772f, 0.00368162f, 0.07942776f, -0.08046728f, 0.01460248f, -0.04436080f, 0.05755226f, 0.02848793f, 0.11183943f, 0.07356831f, 0.03714936f, 0.08699975f, -0.00393661f, 0.02583868f, 0.08292554f, -0.06105308f, 0.07431543f, -0.03840385f, -0.10272580f, 0.13733928f, 0.08994421f, 0.08589415f, 0.13002610f, 0.09038503f, 0.01332515f, -0.07202961f, 0.03130996f, 0.06409758f, -0.07597574f, -0.02268685f, 0.17440334f, -0.08528521f, -0.04174314f, -0.04057138f, 0.00710145f, 0.03820236f, 0.02085741f, -0.02223432f, -0.07173897f, 0.04512539f, -0.01669236f, 0.04081793f, 0.02515393f, 0.05159172f, -0.01952972f, -0.02876840f, 0.08861330f, 0.11430088f, -0.07667244f, 0.05754046f, 0.00441140f, 0.04946263f, -0.00473858f, 0.03467029f, -0.03166484f, 0.06873615f, -0.07683318f, 0.02622860f, -0.08504307f, 0.05732722f, -0.01182273f, -0.12259760f, 0.04498629f, 0.01756029f, 0.03101230f, 0.19451779f, -0.03439609f, 0.04479801f, 0.06067900f, 0.04550500f, 0.09013794f, 0.02440969f, 0.04208916f, -0.00666113f, 0.12294307f, 0.00183711f, -0.01430787f, 0.04332482f, 0.09544033f, 0.01751811f, 0.02791177f, 0.02163248f, 0.01963906f, 0.05015150f, -0.07314595f, 0.09230485f, -0.00303159f, 0.00778861f, 0.00758537f, 0.02223247f, -0.00831493f, 0.03127052f, 0.05567433f, 0.00999887f, -0.01618176f, 0.04424218f, -0.06141176f, -0.05431158f, 0.13464615f, 0.09879728f, -0.01095207f, -0.05864882f, -0.02493939f, 0.07456023f, 0.05070573f, 0.12370013f, 0.01984522f, -0.04416106f, -0.14135394f, -0.02449241f, 0.06267996f, -0.13113441f, -0.04008892f, 0.13586044f, 0.13014013f, 0.07606331f, 0.00471042f, 0.09853261f, 0.03445902f, 0.11992654f, -0.02920253f, 0.14239942f, 0.04650819f, 0.07081191f, -0.18569146f, -0.03210595f, -0.07577353f, 0.01011500f, 0.02673676f, -0.01104398f, -0.07281181f, 0.04758232f, 0.14424774f, 0.08202645f, -0.06695901f, 0.08400492f, 0.04500563f, 0.06131301f, 0.02776029f, -0.15892063f, 0.06612401f, 0.04710772f, -0.05334396f, -0.01254591f, 0.01436500f, 0.00393805f, 0.03124923f, -0.05049817f, 0.06932633f, 0.05450119f, 0.08643634f, 0.12370792f, -0.01806873f, 0.05420928f, -0.06017045f, -0.00228585f, 0.02995495f, 0.03744100f, 0.06897438f, -0.03920450f, -0.04143647f, 0.09112561f, -0.03559499f, 0.03149451f, 0.07155302f, 0.09240959f, 0.06839757f, 0.02749109f, 0.06480334f, 0.07731692f, 0.03361089f, 0.07232081f, -0.05380513f, 0.06847121f, -0.07406192f, -0.00072959f, 0.03758788f, 0.06590474f, 0.19366236f, 0.01842403f, 0.00441516f, 0.09503939f, 0.11793854f, -0.06075446f, 0.05516876f, 0.03749068f, 0.04207721f, 0.00456319f, -0.05394286f, -0.22856174f, 0.12354525f, -0.03639698f, 0.06952978f, -0.07172415f, 0.02419038f, -0.02259802f, 0.01804678f, 0.02378125f, -0.12861688f, 0.05082149f, -0.03690677f, -0.10855467f, 0.05025804f, -0.09418139f, 0.05773075f, 0.09917554f, -0.01156489f, 0.14106894f, -0.06803457f, 0.01158316f, 0.02619712f, -0.01109971f, 0.11244035f, 0.14321412f, 0.00030662f, -0.06320674f, 0.09647508f, 0.05139477f, 0.09135532f, 0.11574023f, -0.04238713f, 0.12447622f, -0.11248720f, 0.09614063f, 0.25944978f, 0.01870056f, 0.02391082f, 0.05816444f, 0.02391574f, 0.10676989f, 0.09630708f, 0.12778719f, -0.09245873f, -0.05071240f, -0.04722676f, -0.05164740f, -0.02389745f, -0.03079044f, -0.02629079f, -0.09122311f, 0.02952514f, 0.00829089f, 0.01078121f, 0.08424005f, 0.01060009f, 0.00407560f, -0.00016620f, -0.04039926f, -0.15361436f, -0.05022829f, -0.09440561f, -0.01057012f, -0.03078995f, 0.08425825f, -0.07439823f, -0.05449091f, 0.10058687f, -0.10156935f, 0.02892498f, 0.04628022f, 0.13740398f, 0.14782239f, 0.04576299f, -0.00469789f, 0.10628726f, -0.13528363f, 0.04412077f, 0.01281926f, -0.03106596f, 0.10086571f, -0.06570799f, -0.00473881f, -0.05126990f, 0.07378247f, -0.01166615f, 0.00620125f, -0.00636528f, 0.07278191f, 0.06089607f, 0.03632476f, 0.05184315f, -0.00163622f, 0.03402559f, -0.08122231f, 0.01939737f, -0.05600754f, 0.12946336f, -0.02039295f, -0.03520773f, 0.04382034f, 0.09147928f, 0.07744286f, -0.03243635f, -0.02058314f, -0.05164678f, 0.00634056f, 0.01105436f, 0.01973896f, 0.05350341f, 0.12232585f, -0.01750876f, 0.12313012f, -0.02915686f, -0.03721042f, 0.01317089f, -0.07668161f, -0.11615865f, -0.12233519f, -0.07591734f, 0.01105496f, -0.03104096f, 0.04603920f, 0.05737474f, 0.10683741f, -0.06190615f, -0.00415326f, 0.02520407f, -0.00447479f, -0.12820293f, 0.03313435f, 0.03168434f, -0.03563628f, -0.02886926f, -0.05713605f, -0.01561747f, 0.03041289f, 0.01748981f, -0.06662741f, -0.00558936f, -0.00572195f, -0.06619184f, 0.08368853f, 0.03232677f, -0.00021316f, 0.03390997f, 0.05522265f, 0.15075003f, 0.02098811f, 0.08839454f, 0.06134242f, -0.10122078f, 0.11915793f, 0.03930510f, 0.04741587f, -0.06391118f, -0.09320692f, 0.11961014f, 0.06928647f, 0.03791384f, -0.02045367f, -0.02737152f, 0.03688399f, 0.21560282f, -0.02196878f, 0.15740301f, 0.02172048f, -0.02646285f, 0.15344605f, 0.00200854f, 0.07184222f, -0.11745982f, 0.21629091f, -0.06969737f, 0.05432008f, 0.02783286f, 0.05135938f, 0.03996498f, -0.00001449f, 0.06914791f, 0.10003867f, 0.03873614f, 0.03514716f, 0.06823938f, 0.06277227f, -0.00480150f, 0.02309633f, 0.07256283f, 0.08223557f, -0.05332001f, -0.07810459f, 0.08009046f, 0.03591341f, 0.07279389f, -0.15055591f, -0.00625712f, -0.18879679f, 0.00541567f, -0.04380327f, 0.05472423f, 0.09377334f, 0.00019421f, -0.02032542f, -0.06739202f, -0.00052220f, 0.00327394f, -0.05027745f, -0.09060575f, 0.02604301f, -0.01419090f, -0.04511888f, -0.02501199f, 0.13557430f, 0.00875342f, 0.01920906f, 0.08631146f, -0.06587615f, -0.00588127f, -0.20402390f, -0.03782010f, 0.01324913f, -0.06946947f, -0.01951306f, -0.24026474f, 0.00798946f, -0.04200521f, -0.15606228f, 0.02491126f, 0.06505933f, 0.13994339f, -0.05800080f, 0.01628668f, -0.00312514f, 0.09165551f, -0.09712722f, -0.04264978f, -0.03340168f, -0.07016357f, 0.08359794f, -0.01092017f, 0.12543383f, 0.01414703f, -0.01164203f, 0.10012624f, -0.14046970f, -0.04774556f, -0.00450766f, 0.00900421f, 0.04092193f, -0.06670469f, -0.15987246f, 0.01799376f, 0.02647606f, -0.04419274f, 0.06565358f, 0.04003099f, -0.08752935f, -0.10978816f, 0.01247418f, 0.06695435f, 0.08248154f, 0.00699400f, -0.19384173f, -0.26600400f, -0.08996573f, -0.10655946f, 0.01603134f, 0.04908061f, -0.06790464f, -0.02388772f, -0.04314432f, -0.18679892f, -0.07068416f, -0.18270610f, -0.02881878f, 0.12456083f, -0.06573453f, -0.05001515f, 0.04995383f, 0.12853798f, 0.04263629f, -0.00113389f, -0.06312261f, 0.05551862f, 0.00984295f, 0.02695975f, 0.05789624f, -0.04709652f, 0.00354965f, 0.08755523f, 0.00280032f, -0.22504902f, 0.22041644f, -0.05152757f, 0.12730125f, 0.06360192f, 0.07710116f, 0.06383484f, -0.25604504f, -0.19797018f, 0.20929462f, -0.03558706f, -0.08159590f, -0.36433634f, -0.10417645f, -0.02359474f, 0.12242056f, -0.02289584f, 0.09237568f, 0.12259800f, -0.07856871f, 0.05892070f, -0.01450797f, 0.05975362f, -0.04040694f, -0.06220591f, 0.17475604f, 0.03343798f, -0.03660287f, -0.26587248f, -0.05342624f, -0.03164865f, -0.03251278f, 0.05463486f, -0.03309138f, 0.05698830f, -0.06745782f, 0.09444527f, 0.02337709f, 0.13247645f, 0.03806333f, 0.07659476f, 0.04397690f, 0.02287495f, -0.07102395f, -0.22356622f, -0.03812739f, 0.09088021f, -0.04438820f, 0.03055771f, 0.01076155f, 0.11726791f, 0.13427037f, 0.02197419f, -0.00155634f, -0.11002723f, 0.02934320f, 0.12497234f, 0.04326712f, 0.01416028f, -0.01324203f, -0.02709010f, -0.06256302f, 0.03039237f, -0.00483008f, -0.00601890f, -0.01078567f, 0.00128455f, -0.12671620f, 0.04721205f, 0.01514883f, 0.02392276f, -0.04294569f, -0.14648640f, -0.01751834f, 0.03604206f, -0.14918013f, -0.04018606f, -0.10133888f, -0.02194234f, 0.08918211f, 0.03244130f, 0.00032482f, -0.00421450f, -0.03137861f, 0.01364524f, 0.08027171f, 0.00971021f, 0.05844109f, -0.15767443f, -0.02659097f, -0.19216791f, -0.08556002f, -0.01671555f, 0.00283891f, -0.14151724f, -0.18094398f, -0.17690161f, 0.04169347f, -0.09291925f, -0.00362273f, 0.09825864f, -0.00664321f, -0.07381077f, -0.00164908f, 0.03543996f, -0.08408782f, -0.00204097f, 0.09930204f, -0.01446799f, -0.09699351f, -0.05403227f, 0.02940144f, 0.05284698f, -0.05586803f, -0.12721138f, -0.20311163f, 0.06964830f, 0.03039837f, -0.06668678f, 0.02852853f, -0.08103116f, 0.00731919f, 0.08179326f, 0.28235132f, -0.13739274f, -0.23779897f, 0.02676223f, -0.15885109f, -0.07097040f, -0.04803232f, -0.02555729f, -0.00681989f, 0.06956028f, -0.07717564f, -0.06736452f, 0.05509059f, -0.09302454f, -0.08361136f, -0.03065494f, -0.13284466f, -0.00570219f, 0.11315540f, -0.00272379f, -0.00719106f, 0.04245102f, -0.16448121f, 0.06619082f, -0.07876272f, -0.04076543f, -0.04777760f, 0.04701805f, 0.13078408f, -0.13344482f, 0.08677746f, -0.08451524f, 0.04492072f, -0.06650541f, 0.02338673f, -0.00348094f, 0.08455148f, -0.02983818f, 0.03761616f, 0.03822973f, -0.09525893f, -0.01342883f, 0.07213274f, -0.00550719f, -0.14217141f, 0.04197249f, -0.07112242f, -0.24677862f, -0.25994876f, -0.03685281f, 0.16311285f, 0.00462415f, -0.03315578f, 0.01591515f, 0.06355198f, 0.04522514f, -0.02920729f, 0.12554017f, -0.00692506f, -0.16220753f, 0.07034266f, -0.05501850f, -0.16993034f, -0.05516067f, 0.00461559f, 0.03937552f, 0.01667432f, -0.12389758f, -0.01113756f, -0.13064905f, 0.00164223f, 0.07795674f, 0.00847291f, 0.00742428f, -0.06460083f, -0.02512359f, 0.06903752f, 0.16828862f, -0.04288265f, -0.02661537f, -0.15268071f, 0.00395575f, 0.09132739f, -0.00816831f, 0.09257387f, -0.00032901f, 0.15007681f, -0.08983668f, 0.02284738f, -0.11678466f, -0.06369140f, -0.03599649f, -0.02354620f, -0.02193770f, 0.08277352f, -0.01535447f, -0.03522482f, -0.09921109f, -0.26712033f, 0.02149696f, 0.02724582f, 0.04439984f, 0.01968126f, 0.02638712f, 0.04924509f, -0.16340213f, -0.14984438f, 0.02549451f, -0.03675884f, -0.00550810f, 0.03712115f, -0.04320115f, 0.05442812f, 0.03012810f, -0.00819414f, -0.23216273f, 0.04067776f, -0.04624803f, -0.06196300f, -0.02642245f, 0.04322317f, -0.03535012f, 0.12570608f, 0.07626548f, 0.03922207f, 0.06131859f, 0.20343271f, -0.05142151f, -0.05063444f, -0.00361672f, 0.02252985f, 0.06123349f, 0.15879829f, -0.11125544f, 0.07597832f, -0.05491111f, 0.20395327f, 0.09672343f, 0.21388523f, -0.03504707f, -0.06324101f, -0.06073311f, 0.05761128f, -0.30515960f, 0.09250943f, -0.24324363f, -0.10820419f, -0.00783415f, 0.03527450f, 0.07964380f, 0.05196603f, -0.00128185f, -0.25780639f, -0.00506165f, -0.17622557f, -0.04582793f, 0.01068351f, -0.13836265f, 0.02700424f, -0.14008099f, -0.20725392f, 0.04282155f, 0.08545237f, -0.30753788f, -0.06099949f, -0.19780466f, -0.31213737f, -0.11539591f, -0.03295857f, -0.01214360f, -0.04724108f, 0.02521097f, -0.13481209f, 0.08206870f, -0.10527622f, -0.02102706f, -0.05897743f, 0.04837034f, 0.13272610f, 0.05928723f, 0.02792060f, 0.07492138f, -0.08914407f, -0.01341700f, -0.02719337f, 0.02287028f, 0.01279034f, -0.08809013f, 0.04090529f, 0.05515576f, -0.09238490f, 0.11372396f, -0.04864539f, -0.13168588f, -0.05377385f, 0.08956703f, 0.06717873f, -0.00201178f, -0.09141505f, 0.13838165f, -0.03529057f, -0.23565739f, -0.05036363f, -0.21507624f, -0.21091466f, 0.09061965f, 0.00574956f, -0.06988832f, 0.07225100f, -0.00840383f, -0.05908002f, -0.24856752f, -0.04912554f, 0.00698531f, -0.00648688f, 0.21870807f, -0.32683960f, -0.08881074f, -0.01751616f, 0.00266191f, -0.08554390f, 0.09135130f, 0.06712046f, 0.01086109f, -0.12111071f, 0.07834254f, -0.02015658f, 0.11732338f, -0.20390971f, 0.11031432f, -0.06971277f, 0.04189001f, 0.02593272f, -0.13862538f, -0.03096954f, 0.04234177f, -0.02123782f, -0.07935035f, 0.00181978f, -0.30496234f, -0.07005943f, -0.02990388f, -0.02278961f, 0.06273866f, 0.02673448f, 0.03346085f, -0.04165919f, -0.10644504f, -0.06970418f, 0.00505133f, 0.16872765f, 0.04523576f, -0.16254009f, -0.07064863f, 0.02463840f, 0.13676588f, -0.03374472f, 0.01980928f, 0.12366928f, -0.16340052f, -0.02713520f, 0.12283511f, 0.02211747f, -0.10665590f, 0.01716125f, -0.07013521f, -0.04613934f, 0.12792189f, -0.10577337f, -0.03272684f, 0.11646620f, -0.09127109f, 0.14634679f, 0.09768017f, 0.03662232f, -0.04441935f, -0.11774556f, 0.08194600f, 0.00826356f, -0.04735171f, 0.01281067f, 0.10726700f, 0.10157806f, 0.02682454f, -0.00743970f, 0.09653118f, -0.01045577f, 0.04592447f, -0.17057323f, -0.00222603f, 0.00990664f, 0.04315435f, -0.10626145f, -0.01219976f, 0.03130889f, 0.04121396f, 0.05810692f, 0.11879691f, -0.00133759f, -0.16946842f, 0.03107492f, -0.02150220f, -0.04713765f, 0.06617610f, -0.09115563f, 0.07921993f, 0.06938931f, 0.02623192f, -0.06363057f, -0.08179777f, 0.06318656f, 0.02688880f, -0.04523399f, -0.02966935f, -0.19196984f, -0.06265539f, -0.19187057f, -0.09955587f, 0.08226918f, 0.10762899f, 0.02980094f, -0.06818979f, -0.03490169f, 0.02801647f, 0.01875941f, 0.07806659f, 0.05891747f, 0.11399929f, 0.13067806f, 0.03688926f, 0.08284011f, -0.04252623f, -0.03163145f, 0.22786568f, 0.13682587f, 0.18083297f, -0.13523465f, 0.02284534f, -0.04583039f, 0.03031769f, -0.01626925f, 0.13150443f, 0.08970979f, -0.01046423f, -0.03747408f, -0.05196098f, 0.08163904f, 0.03979126f, -0.01130078f, -0.03083641f, -0.02715453f, -0.07183328f, 0.17519751f, -0.06091436f, -0.06764365f, 0.05337380f, 0.07047107f, 0.01733165f, -0.02418712f, 0.10565858f, -0.03894459f, 0.01210091f, 0.00067071f, 0.04123361f, -0.01312658f, 0.06583156f, 0.06020516f, -0.03827933f, 0.02894652f, 0.04573351f, -0.09531745f, -0.02172446f, -0.05025485f, 0.15446895f, 0.06624299f, 0.02685258f, 0.14456071f, 0.09445339f, -0.05123435f, 0.01348826f, 0.13143346f, 0.14489600f, -0.04883092f, 0.03420738f, 0.06139744f, 0.10136297f, 0.05517685f, -0.06169062f, 0.02968449f, 0.05949624f, -0.08946252f, 0.03551265f, -0.01582129f, 0.02167420f, 0.03046536f, 0.07638276f, 0.02888293f, 0.14229859f, -0.01491071f, -0.11973199f, 0.09373596f, 0.06820042f, -0.00320573f, 0.05907247f, 0.01587084f, -0.12926784f, 0.02962375f, 0.06436529f, -0.10589828f, 0.00050025f, 0.01649916f, -0.05036423f, -0.09189124f, 0.05060391f, -0.11493380f, 0.00565473f, 0.02189389f, 0.02285519f, 0.00805913f, 0.16446728f, -0.00080409f, 0.04309243f, -0.03390951f, 0.06516840f, 0.05515725f, 0.12818755f, -0.04519943f, -0.04299272f, 0.06275213f, 0.14400592f, 0.06654604f, -0.01844138f, -0.10692732f, 0.04334004f, 0.11574816f, 0.13843070f, -0.00300766f, -0.01940460f, -0.03713271f, -0.09933057f, 0.02397307f, 0.00222084f, 0.01599682f, 0.10115188f, 0.00559959f, -0.17459176f, 0.10168607f, -0.08872239f, 0.00823115f, -0.00396371f, -0.04228644f, 0.00265265f, 0.07976922f, 0.00484347f, 0.16649778f, -0.08114424f, 0.04974745f, -0.02491825f, 0.07223298f, -0.07816663f, 0.01548819f, 0.15486342f, -0.10804242f, -0.04457310f, 0.09211206f, -0.01794519f, -0.00558556f, -0.02176413f, 0.12165920f, -0.11404248f, 0.11744379f, -0.05080439f, 0.11907801f, -0.04816489f, 0.09315677f, 0.01168871f, 0.00476485f, -0.13443457f, 0.04513657f, 0.14860433f, -0.00711111f, 0.06886683f, 0.03528429f, 0.08513277f, 0.07674486f, 0.11620326f, 0.05596161f, 0.09238433f, 0.02651212f, 0.11629868f, 0.04918021f, 0.07016918f, -0.02187409f, -0.01951033f, -0.03105284f, 0.03071274f, -0.04704003f, 0.19244175f, 0.00195667f, 0.12920798f, 0.03325417f, 0.00105185f, -0.01739554f, 0.09221405f, -0.04592736f, 0.03051937f, 0.06510761f, -0.00633680f, 0.07085095f, -0.01002483f, -0.08146781f, 0.08276920f, -0.08579545f, -0.02629369f, -0.00498567f, 0.05381063f, 0.18208928f, -0.03146501f, -0.04166991f, -0.07867895f, 0.09679567f, -0.08770980f, -0.03500324f, 0.13116530f, 0.03413315f, -0.06638222f, 0.10237437f, -0.06349382f, -0.04158942f, 0.00258419f, -0.04043851f, 0.01493635f, -0.00767716f, 0.13510932f, 0.03293807f, 0.06152264f, 0.22524396f, 0.07253150f, -0.11021745f, -0.07755386f, 0.08714193f, -0.07193844f, -0.01872920f, 0.01917082f, 0.01543179f, -0.04111022f, -0.01361612f, 0.09095829f, 0.04645418f, 0.05839599f, -0.02364803f, 0.08300225f, -0.06762317f, -0.05231804f, -0.06124528f, -0.03567252f, 0.00822511f, 0.09184247f, 0.09247942f, -0.04258167f, -0.07229795f, 0.04064199f, 0.15111405f, 0.08016378f, -0.05066001f, -0.00815177f, 0.03677049f, 0.04374005f, -0.03360435f, -0.11315255f, 0.05590054f, 0.11466231f, 0.00592284f, 0.09399485f, 0.01146567f, 0.17438589f, 0.01413621f, 0.16897169f, 0.16685891f, -0.02247921f, 0.02611051f, 0.05654405f, 0.12949380f, -0.10555418f, -0.05146408f, 0.10483815f, -0.01612409f, 0.08962426f, -0.08071354f, 0.00631053f, 0.04940892f, -0.07975856f, -0.07114784f, 0.01510990f, 0.05502295f, 0.05170193f, 0.13011731f, -0.02139473f, -0.03084991f, 0.06168612f, 0.02993857f, 0.00794672f, 0.19724697f, 0.06347747f, -0.05767005f, -0.03334046f, -0.04327209f, -0.06428468f, 0.25859457f, -0.00802211f, -0.05321038f, 0.01613073f, -0.14433950f, 0.08530958f, 0.01222551f, -0.02339702f, 0.04636992f, 0.06383952f, 0.05059677f, -0.10759857f, -0.03275091f, -0.09409291f, 0.03431172f, 0.05276004f, 0.07976977f, 0.05873654f, 0.15095481f, -0.07055756f, 0.02977580f, 0.05244949f, 0.06297789f, -0.07324986f, 0.05258221f, -0.01817660f, 0.06831171f, 0.14014815f, -0.04756123f, 0.02552137f, -0.05269734f, -0.01171540f, 0.05996959f, 0.08379173f, 0.03628034f, 0.04261342f, 0.07748184f, 0.06789801f, -0.02097820f, 0.14286554f, 0.00898591f, 0.06878363f, 0.00904851f, 0.11075194f, 0.05781122f, -0.03782095f, -0.02046875f, -0.00875889f, 0.07977123f, -0.09016345f, 0.06311526f, -0.00609652f, 0.02656675f, 0.00798023f, -0.05889079f, -0.09655626f, 0.08909028f, -0.02605776f, -0.02831876f, 0.05236093f, 0.05305009f, 0.08396851f, 0.03515033f, 0.02462573f, -0.07755437f, 0.15886888f, -0.04070758f, -0.04400934f, 0.05019629f, 0.02739844f, -0.00265348f, 0.00630222f, -0.03227930f, -0.01666258f, 0.10874670f, 0.13693732f, 0.00979755f, -0.10523058f, -0.16781905f, 0.15454140f, 0.01038229f, -0.00995856f, 0.05651726f, 0.07030283f, -0.00119553f, -0.04416265f, -0.04129591f, 0.00440307f, 0.01963212f, -0.02814713f, 0.05176287f, -0.02493893f, -0.02775775f, 0.08729234f, 0.25466049f, 0.03394108f, -0.08783025f, 0.05890696f, 0.13242383f, -0.03004750f, 0.05603961f, 0.06233447f, 0.13140486f, 0.10166902f, 0.03532302f, -0.12088337f, -0.02623457f, 0.10643975f, 0.20129159f, 0.09980220f, 0.01798529f, 0.09206980f, -0.07549684f, 0.00690971f, 0.17017873f, -0.06607723f, 0.13336474f, -0.01975518f, -0.00823402f, -0.05798641f, -0.00676032f, 0.03694823f, 0.00477532f, -0.09173196f, -0.00618738f, 0.01135548f, 0.04975018f, -0.14974628f, 0.09957217f, 0.00524812f, 0.05736798f, 0.06197499f, -0.03643785f, -0.04609419f, -0.06271813f, 0.15191385f, 0.10180150f, 0.03079936f, -0.00021594f, 0.16505070f, -0.00346089f, 0.02523520f, 0.03717083f, 0.06740212f, -0.03633560f, 0.01862418f, -0.15676688f, -0.08263962f, 0.09064932f, 0.11286598f, -0.00375073f, 0.11941457f, 0.02836792f, 0.02088203f, 0.14769566f, 0.03427204f, 0.01949789f, -0.00092474f, 0.06373198f, 0.08851866f, 0.02394683f, 0.02489049f, -0.06847189f, 0.00545558f, -0.00696729f, 0.19454078f, 0.00041053f, 0.10098904f, -0.05378189f, 0.11018644f, 0.04337836f, 0.08214892f, 0.07784656f, 0.01124304f, 0.18097694f, 0.01830759f, 0.01265986f, 0.01093660f, -0.06722681f, -0.02244321f, 0.10336385f, -0.08640172f, -0.02986635f, 0.12010679f, -0.08332711f, -0.01281965f, -0.13189091f, -0.07047295f, 0.00388866f, 0.02613324f, 0.14515145f, -0.09258997f, 0.02646064f, 0.01661428f, -0.07616115f, 0.11302182f, -0.06018126f, -0.10839300f, 0.05112196f, 0.00430987f, -0.06725956f, -0.03500907f, -0.08272027f, 0.07663696f, 0.05242589f, -0.09320524f, 0.01409488f, -0.06315922f, 0.05862644f, 0.10670895f, 0.01640429f, 0.06298653f, 0.03223097f, -0.05908907f, 0.03046289f, -0.06663568f, 0.12881853f, 0.11383483f, -0.06757795f, 0.06338005f, -0.04772284f, 0.11520350f, -0.00822692f, -0.04557992f, 0.09746713f, 0.02501574f, -0.00507601f, -0.02856909f, -0.02088025f, -0.04975736f, -0.03511215f, -0.01403892f, 0.07175752f, 0.00662153f, -0.04774313f, 0.01798777f, 0.08756042f, 0.03725244f, -0.00905269f, -0.06006161f, -0.02973922f, -0.03597473f, 0.06674586f, 0.03110405f, -0.01889986f, -0.05396757f, -0.01129554f, -0.02130914f, 0.01146028f, -0.08282112f, 0.04952617f, -0.05235617f, 0.11937727f, -0.05129807f, 0.03325736f, -0.03366324f, -0.02690995f, 0.03186105f, -0.02331278f, -0.00344384f, -0.06998982f, 0.05111951f, -0.02768723f, 0.06823965f, 0.07073276f, -0.05432383f, 0.02186181f, 0.05413917f, -0.07798732f, -0.00280717f, 0.01229024f, -0.08552133f, 0.08663698f, 0.02209492f, 0.02994295f, -0.00203592f, 0.03208880f, -0.04738704f, -0.04846574f, -0.08272681f, 0.03743760f, -0.03024007f, 0.13813278f, 0.04250750f, -0.00473564f, 0.01739395f, -0.01398040f, 0.00153122f, 0.14792146f, 0.00667949f, -0.06699013f, -0.04326937f, -0.11491837f, -0.04043394f, 0.03344881f, 0.09459498f, -0.03036017f, 0.04163188f, -0.03287177f, -0.00941329f, 0.07217494f, -0.04553651f, -0.05740556f, 0.06060366f, 0.02179115f, 0.02654547f, -0.03725000f, 0.04616908f, 0.02387011f, 0.07133559f, 0.08326303f, 0.01415234f, -0.05615809f, 0.00207368f, -0.11963524f, -0.04361083f, -0.05734045f, 0.01204020f, -0.08750936f, 0.07403786f, -0.05123414f, 0.01395460f, -0.02654475f, -0.09208399f, -0.04179736f, 0.02135725f, 0.05948580f, 0.02017667f, 0.05757395f, -0.01290204f, 0.03015221f, -0.04697696f, 0.02510945f, 0.00442793f, 0.10962327f, 0.08919024f, -0.04914784f, -0.01616085f, 0.02194312f, 0.01468111f, -0.00206905f, -0.04729510f, 0.01992567f, 0.06574886f, 0.01982420f, -0.04506688f, 0.03125059f, -0.11104509f, 0.04876850f, -0.05842823f, 0.06622662f, -0.09527180f, 0.00045162f, 0.05468132f, 0.11239524f, 0.05774292f, 0.03843459f, -0.07004806f, -0.04172259f, 0.05531817f, 0.03600665f, 0.08407245f, -0.07419160f, -0.04670853f, -0.06913570f, 0.07093394f, -0.04856627f, 0.04286958f, -0.11566938f, -0.01323153f, 0.07711735f, -0.03933099f, 0.12157422f, -0.05904397f, -0.03859133f, -0.06935889f, -0.09137025f, 0.01516991f, 0.05356762f, -0.05315664f, -0.00778336f, -0.01716982f, -0.05014795f, -0.06314499f, -0.06385240f, 0.07873243f, 0.09101745f, -0.02882727f, 0.05440798f, -0.02448854f, 0.11810614f, -0.10946973f, 0.03329509f, 0.05049616f, 0.00307202f, -0.03345366f, 0.06174038f, 0.03397017f, -0.11538309f, -0.00680536f, -0.10122138f, -0.12144396f, -0.11689266f, -0.09278933f, 0.07974144f, 0.03395535f, -0.01218861f, -0.05043507f, 0.02144914f, 0.05663018f, 0.08215531f, 0.06637279f, 0.03691399f, 0.10086516f, -0.02619527f, -0.05595676f, 0.08939633f, 0.04654873f, 0.03431821f, -0.10278923f, -0.07957981f, -0.00636322f, -0.07162751f, 0.05811844f, 0.10870052f, 0.02625091f, 0.10843024f, -0.01700274f, -0.04827955f, -0.06417139f, 0.01240089f, 0.03959496f, -0.13191342f, 0.02481136f, -0.05853108f, 0.03999202f, -0.00879202f, 0.00824422f, 0.09132776f, -0.07816234f, 0.10897622f, 0.00436234f, 0.06698824f, -0.07009670f, 0.07433400f, -0.01735984f, -0.00284998f, 0.12713909f, -0.00325355f, -0.03997755f, -0.05568886f, 0.09450285f, 0.06109858f, -0.01235314f, -0.00098114f, 0.09426966f, 0.01572311f, 0.00765973f, 0.01291767f, -0.02233143f, -0.02649403f, -0.10886278f, -0.02681663f, -0.04583788f, -0.09613828f, -0.02536337f, -0.03303494f, -0.06694522f, -0.01032243f, 0.00225354f, -0.08528520f, 0.04156181f, -0.00695128f, 0.04264804f, 0.00663344f, 0.02735091f, -0.00623277f, 0.03068585f, -0.11009014f, 0.00834010f, -0.13513440f, 0.00175668f, -0.00092867f, 0.00849647f, -0.06718574f, -0.01412420f, 0.00624147f, 0.02345270f, -0.03656697f, 0.03277047f, -0.06769776f, -0.03832011f, -0.04284386f, -0.11524713f, 0.02403799f, -0.04321027f, 0.00207660f, 0.11978631f, -0.02029346f, 0.01669850f, -0.02881736f, -0.00535462f, 0.00255035f, 0.04393054f, 0.00480664f, -0.01698438f, 0.17391691f, 0.08650302f, -0.05685860f, 0.02069867f, 0.01911749f, -0.07782667f, -0.10073365f, 0.01853761f, 0.02609860f, 0.06474755f, 0.02229507f, 0.00925084f, 0.01987980f, 0.07172408f, -0.01760857f, 0.02995479f, 0.00364411f, -0.00547461f, -0.05242090f, -0.02147770f, 0.02212480f, -0.03673475f, 0.05646366f, -0.08308814f, 0.06083862f, 0.10016590f, -0.04966608f, 0.10084482f, -0.00466966f, -0.19109623f, -0.00538216f, -0.08027099f, -0.05598097f, 0.02683017f, -0.00734229f, -0.05479408f, -0.00305927f, -0.01958889f, -0.01853601f, 0.09187289f, -0.07371114f, -0.06108115f, -0.05492673f, -0.09018055f, -0.07418653f, -0.11370925f, -0.01498728f, 0.08968825f, -0.02366452f, 0.04180082f, -0.01076440f, 0.11798547f, -0.09676111f, -0.02904288f, -0.05746100f, -0.08029436f, 0.16660173f, 0.06983497f, 0.02139560f, 0.06536169f, -0.04211608f, 0.08097240f, 0.03538821f, -0.03376680f, 0.03752454f, 0.16592467f, -0.09993675f, 0.01004126f, -0.03270119f, 0.03374663f, 0.01373526f, 0.13090897f, -0.13657634f, -0.04757183f, 0.02545934f, -0.03963685f, -0.07878345f, 0.02477321f, -0.13745077f, -0.03888733f, 0.02802154f, -0.06397138f, -0.13996293f, -0.00155157f, 0.00313249f, -0.02113418f, -0.00380873f, -0.09478200f, 0.14425452f, 0.04406298f, -0.05708977f, -0.05625966f, -0.06469496f, -0.04651086f, 0.00478786f, 0.12416461f, 0.05882004f, -0.08198555f, 0.00956485f, -0.02655391f, -0.00505171f, 0.01016094f, -0.02325272f, -0.06823818f, -0.03254747f, -0.05658022f, 0.12736341f, 0.00553966f, 0.06109199f, 0.03086689f, 0.11773053f, 0.10871493f, 0.06053809f, 0.13284084f, -0.04233563f, -0.02022075f, -0.05029968f, -0.05907220f, 0.00398297f, -0.05804964f, -0.04373404f, -0.09643710f, 0.13352700f, -0.02786174f, -0.01974446f, 0.02622745f, 0.06569932f, 0.00822377f, -0.07002892f, 0.05847306f, -0.02890642f, -0.02070980f, -0.07530398f, 0.12500684f, 0.02346704f, -0.00151705f, -0.05453251f, -0.05378345f, -0.06602275f, -0.01116438f, 0.13424456f, -0.10685003f, -0.01276410f, 0.02257971f, 0.08830934f, -0.01461915f, -0.01831877f, -0.02390461f, 0.04526512f, 0.04998130f, -0.01058397f, -0.01415969f, 0.02613918f, -0.03601113f, 0.09683018f, 0.04767542f, 0.08685137f, -0.08273889f, 0.11517131f, 0.03032961f, -0.00608645f, -0.08688523f, -0.00889440f, 0.05577741f, -0.10300706f, -0.07437547f, -0.01879260f, 0.01569502f, 0.08760807f, -0.03500796f, 0.00745673f, -0.02299519f, -0.09887554f, -0.00205769f, -0.03188697f, 0.02689567f, 0.10479438f, 0.12518556f, 0.00367663f, 0.08752542f, -0.04259197f, -0.01596412f, 0.00177737f, -0.03391797f, -0.00885654f, 0.10970921f, -0.05387087f, 0.05148318f, 0.04931772f, 0.02444611f, 0.01975789f, 0.11248185f, 0.02730752f, -0.04480777f, -0.08504705f, -0.00605550f, 0.02013163f, -0.03643484f, 0.01520464f, -0.04521484f, -0.02945804f, -0.06207990f, 0.07103130f, 0.12207023f, -0.05596491f, -0.03304669f, -0.01404996f, -0.06534030f, 0.02224003f, -0.08730635f, -0.05434490f, -0.10771721f, 0.06651079f, -0.10623558f, -0.05269222f, -0.13856618f, 0.01255534f, -0.04231048f, 0.04718656f, -0.06895998f, -0.10934514f, 0.02027589f, 0.07216723f, -0.00473645f, 0.01643385f, -0.03257192f, 0.06132629f, -0.05263734f, -0.09534843f, -0.05599763f, 0.08302126f, 0.15604633f, -0.04778561f, 0.07858100f, 0.09217124f, 0.05923757f, -0.02306036f, -0.11295074f, 0.11691717f, 0.01756933f, 0.06458125f, 0.07320166f, 0.00606536f, 0.11342105f, 0.10896835f, 0.10933428f, -0.05080045f, 0.08011454f, -0.01534652f, 0.10671628f, 0.09625199f, -0.03180351f, 0.19581607f, -0.07691628f, -0.01644775f, 0.04410086f, 0.04175783f, 0.05248712f, 0.03654526f, 0.10837540f, 0.03286012f, -0.00575119f, 0.09952790f, 0.00720509f, -0.06269685f, 0.04324115f, 0.02812054f, 0.07893521f, -0.01860377f, 0.08927679f, 0.18514025f, 0.21970952f, -0.05831914f, 0.11622787f, 0.02656389f, -0.00767417f, -0.04117582f, 0.08943534f, -0.02010218f, 0.05945892f, -0.03048987f, 0.21447226f, -0.11011676f, 0.02131347f, 0.03146534f, 0.07396983f, 0.00838904f, -0.09025943f, -0.07621162f, -0.04240755f, 0.18747567f, 0.12988588f, -0.08327022f, -0.02499817f, -0.14888968f, 0.10299566f, 0.04607528f, -0.03353132f, -0.04600945f, 0.12873982f, 0.05202421f, 0.03262208f, -0.09962489f, 0.04240824f, -0.02637719f, 0.02299891f, 0.29098544f, 0.28216434f, -0.02762441f, -0.17036551f, -0.01833597f, 0.18609674f, 0.24199523f, -0.21013489f, 0.00930071f, -0.08796022f, 0.05855792f, -0.08668727f, -0.08421388f, 0.01960807f, -0.05919724f, -0.07941502f, 0.00480907f, 0.11843323f, -0.11376575f, -0.05056835f, -0.02114097f, 0.18912472f, -0.04560499f, 0.01196046f, 0.12009709f, -0.01702981f, 0.06049961f, -0.02864144f, -0.03129982f, -0.01581151f, -0.01009928f, 0.00978253f, -0.02570003f, 0.05018082f, 0.08792810f, -0.02143053f, 0.02213624f, 0.27765906f, -0.04099700f, 0.09698104f, 0.01960613f, 0.05062744f, 0.06234482f, 0.01082208f, 0.07287726f, -0.01971664f, -0.06206203f, -0.10549647f, 0.03308675f, -0.04973061f, -0.00901857f, 0.01738603f, -0.01690968f, -0.00852741f, -0.08208706f, 0.06828209f, -0.02962204f, 0.07382905f, 0.17667533f, -0.03517970f, 0.04978796f, -0.05245339f, -0.03853917f, -0.02798037f, 0.06987580f, 0.17176262f, -0.09016556f, 0.03955689f, 0.07753091f, -0.07950972f, -0.08697397f, 0.11305987f, 0.02390182f, -0.09686139f, 0.01471563f, -0.02488294f, 0.06589065f, 0.01593815f, 0.08391856f, -0.20821688f, -0.01030100f, 0.14092453f, 0.01215126f, -0.06815819f, 0.13338721f, 0.01998945f, 0.04736376f, 0.08473819f, 0.22448236f, 0.15410517f, -0.05413464f, 0.22579275f, -0.00394693f, 0.08363447f, 0.00693189f, 0.06741044f, 0.01908114f, 0.22563668f, 0.17402016f, -0.07768200f, -0.03089612f, 0.06862007f, -0.03107048f, 0.01996185f, -0.04322481f, -0.09408470f, 0.04591883f, 0.18437569f, 0.13098907f, 0.01530055f, 0.14000626f, -0.08196551f, -0.02209147f, 0.02310385f, -0.07795835f, 0.03506167f, -0.14085931f, 0.02767085f, 0.10125804f, -0.15087350f, 0.02475835f, 0.02094368f, -0.04337976f, 0.04177366f, 0.10524283f, 0.05231304f, 0.23817159f, 0.07934544f, 0.01361713f, 0.03284181f, -0.10340003f, -0.00091973f, 0.18388900f, 0.05301702f, 0.05048208f, 0.07342136f, -0.01951707f, 0.09403221f, 0.24720834f, 0.08610400f, 0.10799167f, -0.03665650f, -0.00725839f, 0.01651812f, 0.05751009f, 0.04132567f, 0.00354293f, 0.03504953f, -0.06140661f, 0.04216765f, 0.07371718f, -0.00702387f, 0.02659206f, -0.08145069f, 0.05269735f, 0.01848175f, 0.19596179f, 0.01436054f, -0.05080558f, 0.08041129f, 0.31226900f, 0.15475710f, 0.10952462f, 0.16748898f, 0.32560360f, 0.15488948f, -0.03610428f, -0.17262460f, 0.00789644f, 0.04136683f, 0.00058025f, -0.11837630f, 0.04847180f, 0.05954624f, 0.05200844f, 0.02520392f, -0.06002225f, 0.06177671f, 0.13369444f, 0.14374501f, -0.10591175f, 0.10785449f, 0.00022564f, 0.03079886f, -0.01885416f, 0.34928900f, 0.09524086f, -0.04758199f, 0.04107584f, 0.13817187f, 0.04577501f, 0.08864181f, -0.15060265f, -0.16631293f, -0.00666046f, -0.01860648f, 0.20117728f, 0.00434605f, 0.15764333f, -0.11655426f, 0.07204169f, -0.02644264f, -0.02837369f, 0.01101803f, -0.04936178f, 0.04969630f, -0.00012989f, 0.02063361f, -0.00330749f, 0.04875204f, 0.02371918f, 0.00086671f, 0.09095982f, 0.05981747f, 0.28107819f, -0.08213921f, -0.02210132f, 0.05110185f, -0.07736129f, 0.01989480f, 0.02663572f, 0.20237792f, 0.15439588f, -0.05820087f, 0.02649101f, -0.05508133f, 0.04248343f, 0.00202604f, 0.01700756f, -0.16648832f, 0.20225288f, 0.35224724f, -0.02743213f, -0.00104200f, 0.04597803f, 0.01345905f, 0.06528546f, 0.03041810f, 0.00862286f, -0.02303159f, 0.04537281f, 0.04135314f, -0.04868617f, -0.09199513f, 0.04409448f, 0.07759530f, -0.03928384f, 0.00584905f, 0.03397061f, 0.09379047f, 0.00326083f, 0.10678751f, -0.03456115f, -0.01349889f, -0.07482284f, -0.00276216f, 0.00195780f, -0.04205769f, 0.02222133f, 0.13094744f, -0.09263224f, 0.26357260f, 0.20513940f, 0.06925534f, -0.13057232f, 0.04589204f, -0.01608231f, -0.03477543f, 0.24331300f, -0.09010212f, 0.19053385f, 0.01734777f, -0.01652555f, -0.12366149f, 0.02616179f, 0.35344538f, 0.27624574f, 0.09145509f, -0.01998722f, 0.26456398f, 0.04852160f, 0.14985266f, 0.23119059f, 0.10711612f, 0.09342308f, 0.07337563f, 0.08805919f, -0.06403037f, 0.05936938f, 0.00351826f, -0.04436876f, -0.06310820f, -0.15324639f, 0.12795722f, 0.06096452f, -0.01192589f, -0.04278979f, -0.06046138f, 0.31385291f, -0.09747408f, 0.01993586f, -0.04398885f, -0.04806145f, 0.19017160f, -0.01826995f, -0.03530052f, 0.05509998f, -0.01302478f, 0.00200488f, -0.03915276f, 0.10270280f, -0.00430302f, -0.08388299f, -0.15841208f, 0.13497168f, 0.02474781f, 0.04982314f, 0.09145849f, 0.01872115f, 0.22758251f, 0.07435880f, -0.04665710f, 0.04007128f, 0.04781493f, -0.15579271f, -0.10914902f, 0.06690475f, 0.20925747f, 0.01969735f, 0.02183059f, -0.01103389f, -0.11406036f, 0.19290526f, -0.06252315f, 0.02160631f, 0.07292347f, 0.09859151f, 0.03533289f, 0.05764919f, 0.05447920f, 0.15067586f, -0.05624577f, -0.04693367f, -0.01940331f, 0.19538772f, -0.02478273f, -0.13287401f, -0.02108312f, 0.13711534f, 0.18536270f, 0.08648020f, 0.13776895f, -0.00994404f, 0.01927869f, -0.08580913f, 0.11594119f, 0.01265982f, -0.03259353f, 0.03512241f, -0.08088686f, 0.14566079f, 0.15201686f, -0.07241150f, -0.07194061f, 0.08825906f, -0.00783831f, -0.06825889f, 0.04443213f, 0.15430006f, 0.06359195f, -0.01774010f, 0.06082159f, 0.09149019f, -0.04531033f, 0.01147224f, 0.27830395f, 0.10067856f, 0.09220032f, 0.00522709f, 0.10615036f, 0.13304265f, 0.15398876f, 0.10377544f, 0.09299551f, 0.01465035f, -0.00419552f, 0.06887870f, -0.02471367f, -0.07791845f, -0.03100843f, 0.03453727f, -0.03912370f, 0.10675278f, -0.15426828f, 0.02664444f, 0.02290910f, -0.00545057f, 0.00096516f, -0.00453310f, -0.04329240f, 0.05617028f, -0.02528449f, -0.02443023f, 0.00281727f, 0.37285450f, 0.07434444f, 0.05596448f, 0.08489463f, 0.19880037f, -0.00871012f, -0.01532534f, -0.01185609f, 0.07149062f, -0.08843524f, 0.05567397f, 0.27173397f, -0.00114209f, 0.10565566f, -0.06645812f, 0.03816186f, 0.09533397f, 0.13295045f, -0.04424441f, 0.22064687f, -0.09921528f, 0.13074571f, -0.13818495f, -0.12765737f, 0.12860097f, 0.04418077f, 0.20408504f, 0.08009414f, 0.24882519f, -0.08288502f, -0.02330725f, 0.04693264f, 0.12443679f, -0.18816327f, 0.05870644f, -0.06868850f, -0.18887895f, 0.03388104f, 0.11753239f, 0.00604413f, -0.02868653f, 0.04229088f, 0.04502032f, 0.03904694f, 0.00462978f, -0.01087665f, -0.17176448f, 0.01261262f, 0.05571801f, 0.02287774f, 0.13015044f, 0.09874330f, 0.07569946f, -0.06022506f, -0.28494757f, 0.06805885f, 0.02427027f, 0.01354147f, -0.07427893f, -0.06136522f, -0.09335570f, -0.00482456f, 0.04785160f, -0.01255902f, -0.03891760f, -0.00241192f, 0.02733293f, -0.02488955f, -0.04911076f, -0.11794365f, -0.08622105f, 0.03913148f, -0.11329748f, -0.20110840f, -0.03979181f, -0.12158913f, -0.07076728f, 0.03354022f, 0.02496037f, 0.01868225f, 0.01846902f, -0.07312884f, 0.01308588f, -0.22676452f, 0.06758443f, 0.03514143f, 0.09606310f, -0.12191854f, 0.09639586f, 0.01289667f, 0.00917236f, -0.07331676f, -0.14178063f, -0.01305821f, -0.07542228f, 0.10937444f, 0.02486847f, 0.01442665f, 0.03918489f, 0.16469121f, 0.17602342f, -0.20184861f, 0.07176467f, 0.06649092f, 0.07427441f, 0.05326887f, 0.09375571f, -0.04890459f, -0.19042249f, -0.22480649f, 0.05733718f, -0.02693990f, 0.03048727f, -0.30327410f, -0.15117182f, -0.07285161f, 0.00816599f, 0.04750172f, -0.01345804f, 0.10559174f, -0.03793461f, 0.08229021f, -0.00749154f, -0.02329098f, 0.02781090f, -0.01410247f, 0.03406316f, 0.10830861f, -0.11419756f, -0.29585081f, -0.00319725f, 0.07989657f, 0.02842112f, 0.03143816f, -0.01569042f, 0.06093078f, -0.02571629f, 0.15354007f, 0.04828984f, 0.22923394f, 0.01597546f, 0.08633088f, 0.14103580f, -0.08044855f, 0.01603989f, -0.21033858f, -0.03862764f, -0.02976998f, 0.03162814f, 0.26836210f, -0.02372504f, 0.00511624f, 0.13093525f, -0.00491513f, -0.04263054f, 0.14225833f, -0.12681682f, 0.13237680f, -0.02069336f, 0.01038423f, 0.00101596f, 0.08816927f, 0.03017735f, 0.23470339f, 0.03781846f, -0.13708186f, -0.05375127f, 0.07125105f, 0.06721520f, -0.01859702f, -0.03463427f, 0.00979706f, -0.12556322f, -0.17701188f, -0.11082043f, 0.02823986f, -0.09641210f, 0.02950842f, -0.09912159f, 0.04112501f, 0.06521380f, -0.00148109f, -0.01824760f, 0.03028055f, 0.01726108f, -0.06312379f, -0.07802854f, 0.05950895f, 0.19322418f, -0.08377652f, -0.02323509f, -0.05386831f, 0.13231559f, -0.08510768f, 0.01244956f, -0.16906501f, -0.20622650f, -0.12922806f, 0.00539492f, -0.21991964f, -0.05850689f, -0.05102528f, -0.09825419f, 0.02211508f, -0.07556334f, -0.18031900f, -0.17386529f, -0.00897652f, 0.00500985f, -0.01196363f, 0.05387915f, -0.04307080f, -0.09845114f, -0.10835771f, -0.02428151f, -0.26459301f, -0.24762002f, -0.01057572f, -0.01394255f, -0.01012152f, 0.06131385f, -0.04747738f, -0.06713394f, -0.03973980f, 0.10077327f, 0.02075043f, -0.19790533f, -0.02453395f, -0.08118352f, 0.04439012f, 0.08595961f, 0.00287936f, -0.00088646f, -0.10550400f, -0.09258592f, -0.04732549f, -0.02815301f, -0.02891591f, -0.07276987f, 0.01563653f, -0.06727027f, -0.02595061f, -0.02914656f, -0.04422783f, 0.00248593f, -0.06117335f, -0.15125757f, -0.04023960f, -0.01988770f, -0.03304310f, 0.08867086f, 0.05173692f, -0.08528487f, 0.01438327f, 0.19535445f, 0.05576575f, 0.08989156f, -0.06008454f, 0.09197742f, 0.02290994f, -0.05593676f, -0.12960842f, 0.07315162f, -0.05749766f, -0.29260236f, 0.07571289f, -0.08303053f, -0.10199972f, -0.09661440f, 0.01341890f, -0.03604672f, -0.31100103f, -0.27410835f, 0.07264881f, 0.09087792f, -0.07153822f, 0.15735458f, 0.05039923f, -0.05515577f, -0.01234761f, 0.01775123f, -0.02191447f, 0.10134745f, 0.02071833f, -0.00497594f, 0.00631663f, -0.23716706f, -0.06344265f, -0.02179253f, 0.05135690f, -0.04422790f, -0.05472029f, 0.00584017f, -0.22237323f, -0.10106146f, -0.00665238f, -0.02163724f, -0.02927732f, -0.11246523f, -0.05692042f, -0.02013772f, 0.09071787f, -0.08635496f, -0.05242681f, -0.07336473f, 0.02712816f, -0.00929709f, -0.04645805f, -0.02618440f, -0.00064387f, 0.08657238f, 0.04646558f, -0.13500506f, -0.07304336f, 0.07023712f, 0.01904140f, -0.11863919f, -0.04480472f, -0.03117455f, -0.06364562f, -0.03270636f, 0.09230896f, -0.27599391f, 0.03655444f, -0.13594848f, 0.05555637f, 0.08223527f, 0.00498479f, 0.06309117f, -0.19152555f, 0.05361110f, 0.02421504f, -0.03049236f, 0.08831376f, -0.01024108f, -0.07521182f, 0.03582907f, 0.17038409f, -0.03235885f, -0.25817141f, -0.00543796f, 0.11859810f, -0.04025577f, -0.08780579f, 0.00580993f, 0.03516826f, 0.07873382f, -0.02995030f, 0.04605473f, 0.09539519f, 0.16476937f, -0.03701685f, -0.10172773f, -0.00327713f, -0.11960477f, 0.17325486f, 0.12047691f, -0.01271839f, -0.03550471f, 0.00888932f, 0.13232639f, -0.00475408f, 0.16044553f, -0.04101846f, -0.09474365f, -0.06472421f, 0.04777664f, -0.29158959f, 0.08936410f, -0.21711630f, -0.30507621f, 0.00334777f, 0.06413724f, -0.04318615f, -0.04961827f, 0.04716306f, -0.22537239f, 0.00899284f, -0.16035455f, 0.09789874f, -0.00907921f, 0.00887468f, -0.02386961f, -0.26970389f, -0.39003709f, -0.13734703f, 0.14070779f, -0.31134772f, -0.00169566f, -0.10383703f, -0.37337902f, 0.12481403f, -0.02064192f, -0.01689141f, -0.01376151f, 0.08475986f, -0.05878219f, 0.06939682f, 0.07334411f, 0.03437882f, -0.04346209f, -0.05824104f, 0.10909736f, 0.06414098f, 0.05431055f, 0.05572963f, -0.20146582f, 0.19461374f, 0.03124198f, 0.04204676f, 0.02557645f, -0.10761879f, -0.00537463f, -0.03226198f, -0.09584527f, 0.05604500f, 0.05211306f, 0.01296725f, -0.06564359f, -0.00259730f, 0.00338357f, 0.08887088f, -0.06006234f, 0.09314028f, -0.12639475f, -0.26226133f, -0.06007814f, -0.28026924f, -0.08790888f, -0.01615243f, 0.11382838f, -0.05762004f, 0.09919821f, -0.08521736f, -0.00136949f, -0.28567770f, -0.01270466f, 0.01464361f, -0.05455280f, 0.10478733f, -0.17822568f, -0.01557483f, 0.01738856f, 0.03676436f, -0.13538665f, -0.10243873f, 0.04836590f, -0.04808975f, -0.03571745f, 0.05720796f, -0.03313381f, -0.06686879f, -0.31252396f, -0.10131997f, -0.00013713f, 0.00562477f, 0.08240172f, -0.26949075f, 0.01826008f, -0.05174665f, 0.00193626f, -0.05370823f, 0.00625325f, -0.09077142f, -0.05473386f, -0.00737752f, -0.00591320f, -0.00294297f, 0.06875525f, 0.03501192f, 0.00329603f, 0.07333271f, -0.05046589f, -0.03033055f, 0.13338655f, -0.04013896f, -0.08859625f, 0.17864929f, 0.09037875f, 0.09741488f, -0.11132999f, -0.04660012f, -0.04266114f, -0.15112136f, -0.07713116f, -0.04178742f, 0.05364889f, 0.09851533f, 0.11055019f, -0.05488835f, 0.09120065f, 0.04771100f, -0.10312819f, 0.03541676f, 0.00255107f, 0.02668227f, -0.02573260f, -0.03001051f, -0.06586108f, 0.02622903f, -0.13381457f, 0.16495110f, 0.02682333f, -0.00296222f, 0.04146894f, 0.11726224f, 0.09756076f, 0.07711924f, 0.02190369f, 0.01466128f, 0.09239326f, 0.00705611f, -0.34342301f, -0.08334494f, 0.08532956f, -0.03438058f, -0.19763315f, -0.03598894f, 0.05921602f, 0.03168562f, -0.02906277f, 0.11870097f, 0.01571905f, -0.11729507f, 0.15518440f, 0.15140080f, 0.06933421f, -0.03381909f, 0.00122044f, -0.00156513f, -0.02058511f, -0.00538533f, -0.08024324f, 0.06287605f, 0.21539220f, 0.05929198f, -0.03029345f, -0.01559647f, -0.12524731f, 0.06793824f, -0.27452514f, -0.03871959f, -0.10236500f, -0.06716062f, 0.06553078f, 0.25626501f, -0.04235806f, 0.16658205f, 0.17936897f, 0.07534465f, -0.12250113f, 0.03080550f, 0.22860083f, 0.03424758f, 0.02555407f, 0.08414251f, -0.07540357f, 0.15611634f, 0.08615126f, 0.02461622f, 0.00446328f, 0.13227129f, -0.01109601f, 0.03491746f, -0.07528053f, 0.00080147f, 0.11576280f, 0.01041374f, -0.03613662f, 0.01421849f, 0.08268998f, -0.02367343f, 0.05083347f, 0.04720167f, -0.06578180f, -0.10975029f, 0.20113778f, 0.05080172f, 0.00672229f, 0.20530188f, 0.10739759f, 0.09448259f, 0.02649183f, 0.10291276f, 0.34604686f, 0.22133464f, 0.00994532f, 0.14404701f, 0.00672596f, -0.00197133f, 0.00888896f, -0.04300209f, -0.10563613f, -0.11804481f, 0.00302593f, 0.23648775f, 0.01590985f, 0.03926502f, 0.07116614f, -0.02330718f, -0.06970762f, -0.00547547f, -0.00234433f, 0.07033297f, 0.19560261f, 0.08979465f, -0.08946327f, 0.03710137f, -0.08417965f, 0.01820789f, -0.06189942f, -0.10661925f, -0.07034524f, 0.23473860f, -0.11175968f, -0.03669225f, -0.05137701f, 0.01004389f, -0.02405452f, 0.07291444f, 0.14491266f, 0.22854169f, -0.04733896f, 0.02781003f, 0.16810927f, 0.14107160f, 0.13990219f, -0.06010062f, 0.09318683f, 0.04460096f, -0.09940917f, 0.03524281f, 0.01199946f, 0.04964712f, 0.08361708f, 0.05815010f, -0.04053204f, 0.09219477f, -0.07831799f, 0.04340179f, 0.07257620f, 0.24245499f, -0.01550064f, -0.04771049f, 0.10172099f, -0.01948022f, -0.01431220f, 0.03344783f, -0.07211980f, -0.00087249f, 0.06036644f, -0.04330223f, -0.12070519f, -0.05057783f, 0.13098343f, 0.03145947f, 0.02865883f, 0.18707806f, 0.01654798f, -0.04837581f, -0.01656746f, 0.06534670f, -0.02099762f, -0.07609008f, 0.03882174f, -0.02629709f, -0.06290898f, -0.06465281f, -0.05594019f, 0.03419625f, -0.10340294f, 0.04015772f, -0.01107406f, 0.02730739f, 0.03756821f, -0.09418236f, -0.07171746f, -0.02976540f, 0.12687325f, -0.01724095f, 0.03352483f, -0.00911761f, -0.06107960f, -0.02960583f, 0.10296486f, 0.22290650f, -0.11432147f, 0.06590361f, -0.04261509f, 0.13107853f, -0.02983868f, -0.03119334f, 0.05639455f, -0.03441630f, 0.08199360f, -0.01808082f, -0.04491859f, 0.02259398f, 0.01210894f, 0.02756996f, -0.03871103f, 0.25562871f, 0.09964128f, 0.15962483f, 0.01725500f, 0.02496803f, 0.08307522f, 0.21791553f, 0.20421506f, 0.19913618f, 0.08923194f, 0.12089235f, 0.02562478f, -0.10749903f, -0.04804295f, -0.06181376f, -0.09302512f, 0.15105467f, 0.19273129f, 0.02977883f, -0.12372081f, 0.13031769f, 0.03480966f, 0.06064530f, -0.05313152f, 0.01448073f, -0.02572067f, 0.17417192f, 0.21767314f, -0.00853776f, 0.03463925f, -0.06679180f, -0.06070977f, 0.05585724f, 0.12829626f, -0.10107517f, -0.06197138f, -0.06928000f, 0.06093202f, 0.02890734f, 0.09982455f, -0.01581644f, -0.08173726f, -0.04196562f, 0.09876533f, -0.00935828f, 0.10705785f, -0.04153983f, -0.05455745f, -0.04163526f, 0.08491219f, 0.00818298f, 0.20581770f, -0.03336412f, -0.00896243f, 0.01612260f, -0.02039429f, -0.06045517f, 0.26384619f, 0.03841075f, 0.08565716f, 0.00774978f, -0.08358975f, -0.00577048f, 0.07206272f, 0.01822889f, 0.01103883f, -0.08766362f, -0.00527140f, -0.07862084f, 0.00431197f, 0.00244036f, 0.01642142f, 0.00752552f, -0.05991935f, -0.02933932f, 0.29911456f, 0.03820932f, -0.01306653f, 0.07572809f, 0.25122681f, 0.05865088f, 0.11941961f, 0.21136227f, 0.35610640f, 0.13670751f, -0.01082831f, -0.02626741f, 0.07836503f, -0.01867955f, 0.12135621f, 0.06094190f, 0.04047858f, -0.02810065f, -0.05100438f, 0.00522951f, 0.04988763f, 0.18955581f, 0.19572423f, 0.05204660f, -0.02747026f, 0.16389060f, 0.10671864f, -0.13093656f, -0.03274114f, 0.23195350f, 0.19027205f, 0.04989298f, 0.03583132f, 0.17572539f, -0.03339496f, 0.08732247f, 0.08574132f, -0.06153920f, 0.06490859f, 0.01726207f, 0.09419892f, 0.02954085f, 0.06367563f, -0.00013424f, 0.13285388f, -0.01284893f, -0.04012986f, 0.13326214f, -0.13347286f, -0.06087797f, 0.02436703f, -0.00713340f, -0.06123790f, 0.05958044f, 0.05472397f, -0.08678253f, 0.03834800f, -0.07568602f, 0.23013003f, 0.00550982f, 0.10864793f, 0.04628884f, -0.10489378f, -0.04631644f, 0.03027841f, 0.24142490f, -0.06429235f, 0.10988818f, 0.00622136f, 0.04444438f, -0.00015309f, 0.04804939f, -0.06108858f, -0.06976502f, 0.08523919f, 0.37539569f, 0.11903269f, 0.01359974f, -0.09120468f, 0.05523325f, 0.06523257f, 0.10213754f, -0.00298766f, 0.20557149f, 0.11946194f, -0.04380621f, -0.09490535f, 0.00288939f, 0.14893958f, 0.19406296f, 0.04918293f, -0.03440695f, -0.00408334f, 0.19094904f, -0.10109714f, 0.18123823f, -0.03398284f, 0.02811616f, -0.14775857f, 0.14832057f, 0.19061799f, 0.02456995f, 0.00506052f, 0.23423724f, 0.03209329f, 0.27790242f, 0.13394204f, -0.02004940f, 0.01589127f, -0.02245296f, -0.01312874f, -0.01958322f, 0.28240407f, -0.10442372f, 0.20655796f, 0.10176000f, 0.11807299f, -0.01276028f, 0.03712779f, 0.16476537f, 0.27555040f, 0.12352300f, 0.15949196f, 0.05664649f, -0.07414642f, 0.10695902f, 0.18130645f, 0.10789154f, 0.05508321f, 0.14259852f, 0.15423667f, -0.03023935f, 0.00861901f, 0.00982735f, -0.04495544f, -0.04460415f, 0.08257088f, 0.03765142f, 0.01529104f, -0.00018307f, 0.03471168f, -0.00514740f, 0.25229242f, 0.03190593f, 0.04314537f, 0.01358980f, -0.05918183f, 0.23506151f, -0.01990402f, 0.09847390f, 0.24407583f, 0.05999282f, 0.00298978f, 0.03286487f, 0.24317746f, -0.00356769f, 0.00718630f, 0.01890516f, 0.14708745f, 0.01314787f, 0.21465114f, 0.14669009f, -0.01298830f, 0.27041712f, 0.17780726f, -0.03127888f, -0.04851983f, 0.02060413f, -0.06584278f, -0.01119820f, 0.07359291f, 0.22012927f, 0.04725715f, 0.07600318f, 0.00915602f, -0.05614940f, 0.33548269f, 0.06901486f, 0.09809383f, -0.05022828f, 0.27957290f, 0.01149840f, -0.14987017f, 0.02744671f, 0.25937736f, -0.04594684f, -0.05177275f, 0.03650427f, 0.20177756f, -0.01927301f, -0.00151907f, 0.11258734f, 0.15635166f, 0.21226487f, 0.06186986f, 0.02210265f, -0.01077030f, -0.02730555f, -0.02863094f, 0.26968023f, -0.06754290f, 0.05143731f, 0.04000440f, 0.04260526f, 0.08845175f, 0.03959438f, -0.02523166f, 0.03352196f, -0.04062525f, -0.01865371f, 0.02859288f, -0.08674944f, 0.28277805f, -0.16006617f, 0.03379847f, 0.04796633f, 0.06074601f, -0.09294389f, 0.00757822f, 0.35238010f, 0.10977949f, 0.11909200f, 0.01169496f, 0.07036645f, -0.07728752f, 0.16370435f, 0.00539350f, 0.03391952f, 0.05935070f, -0.06399009f, 0.13169046f, 0.07628491f, 0.01462579f, 0.10217982f, 0.04083092f, -0.01994958f, 0.21528572f, -0.09635382f, 0.01329645f, 0.10437334f, 0.07226480f, 0.06097446f, -0.18430682f, -0.01323506f, -0.15798540f, 0.11236342f, 0.02466534f, 0.08964219f, 0.25233617f, -0.00351397f, -0.02469103f, -0.01306059f, 0.23934755f, -0.00375551f, -0.01197066f, -0.15132715f, -0.02414290f, -0.10715552f, -0.06104502f, 0.24211977f, 0.06969441f, 0.05808612f, -0.05416689f, -0.11378770f, 0.05210453f, 0.08099462f, -0.06438360f, -0.01896068f, -0.03769350f, 0.03937463f, -0.07992512f, 0.10045844f, 0.18750526f, 0.05332080f, 0.15468629f, -0.04424621f, 0.18190524f, 0.07991419f, 0.02759509f, 0.08574294f, 0.05709888f, -0.15951477f, 0.02902548f, -0.07029725f, -0.16289167f, 0.03075144f, 0.02010331f, 0.05124400f, -0.03717675f, -0.13542192f, 0.02003932f, 0.01209508f, -0.05423464f, 0.03202805f, -0.07130947f, 0.05123720f, 0.08680215f, 0.00007628f, 0.10600156f, -0.04196161f, 0.11862897f, -0.11965267f, -0.05668001f, -0.12475959f, 0.00476146f, -0.05358320f, 0.06087100f, -0.12063406f, 0.08288730f, -0.00106555f, 0.01237403f, 0.06505769f, 0.10413139f, 0.00350698f, -0.03526211f, 0.05080035f, 0.00027609f, 0.14717072f, -0.09930415f, 0.11219435f, -0.14812736f, -0.16124931f, -0.09360113f, -0.06899915f, 0.04613192f, -0.07932886f, 0.10103507f, 0.00927775f, -0.09598689f, -0.00839241f, -0.02702723f, -0.25355893f, -0.04158716f, 0.02530556f, 0.03452529f, -0.06519090f, -0.06872234f, -0.01950549f, -0.03943017f, 0.07924631f, -0.24053864f, 0.00885098f, 0.09621092f, -0.06155001f, -0.05245853f, -0.00839195f, -0.03697746f, 0.11088853f, -0.02345983f, -0.14257362f, 0.00068717f, -0.05801756f, -0.03809539f, 0.09961759f, -0.00074569f, 0.05304939f, -0.15629961f, -0.25890216f, 0.11284497f, -0.03649530f, 0.01889739f, -0.13968234f, -0.18577920f, 0.16004883f, 0.08410259f, -0.00071956f, -0.10170604f, 0.08153767f, -0.02863139f, 0.12016463f, -0.04858743f, -0.02816840f, 0.05733964f, -0.04496806f, 0.15083052f, -0.02974713f, 0.11656874f, -0.27533883f, 0.02816523f, -0.03620097f, 0.03111419f, -0.00808856f, -0.06468040f, -0.12030825f, -0.10145033f, 0.09123676f, 0.02508843f, 0.14434533f, 0.05808759f, 0.08185969f, 0.01337825f, 0.05235877f, -0.05554038f, -0.10974397f, -0.08026088f, -0.09560903f, 0.02439093f, -0.00566546f, -0.00902821f, -0.01913079f, 0.04368759f, 0.11795413f, 0.08527829f, -0.07582684f, 0.02775067f, 0.03993611f, 0.07866369f, -0.00472437f, 0.10339010f, -0.01233387f, 0.01739795f, 0.09850302f, -0.03657371f, 0.04021896f, -0.10600008f, 0.01975160f, -0.10625139f, 0.06283073f, -0.00656721f, 0.07628940f, -0.07121817f, 0.06258487f, 0.01479517f, 0.08400416f, 0.03538211f, -0.04360971f, 0.02175446f, 0.09410444f, -0.10917283f, -0.07350103f, -0.00325178f, -0.01528155f, 0.05137928f, 0.02558987f, 0.05987640f, 0.03746072f, 0.08912984f, -0.20016371f, 0.00709509f, 0.03041300f, 0.05703150f, -0.01215215f, 0.04645897f, -0.08777235f, -0.12096015f, -0.13258310f, 0.10452364f, -0.09187023f, 0.00990412f, -0.09492882f, 0.06322633f, -0.04219228f, -0.01332649f, -0.20074590f, -0.06439224f, -0.12156626f, 0.01263945f, 0.00100301f, 0.01782687f, -0.02845830f, 0.03975584f, -0.02110255f, -0.12703122f, -0.13159196f, -0.21146201f, -0.13701631f, -0.17738877f, 0.02093013f, 0.09906784f, 0.09806417f, 0.06182863f, 0.01866745f, 0.11271668f, -0.03098208f, -0.18440710f, -0.08794010f, -0.16043170f, 0.09143247f, 0.15113166f, 0.02760237f, -0.03894557f, 0.05509655f, -0.12446311f, -0.04619060f, 0.02473953f, -0.03533991f, -0.05524097f, 0.06621986f, -0.22819203f, -0.02217870f, 0.04074808f, -0.06776244f, 0.12088605f, 0.19153203f, -0.12689053f, -0.17610697f, -0.01567287f, -0.05085734f, 0.01902199f, 0.00887657f, -0.06484205f, 0.04277237f, 0.07465427f, -0.09165460f, 0.06816214f, -0.04849871f, 0.09745444f, -0.03662035f, 0.02800663f, 0.02231161f, -0.06808563f, 0.12434954f, -0.24434392f, 0.00687386f, -0.02058008f, 0.03968419f, -0.14806795f, -0.00483023f, 0.04654911f, -0.13410339f, -0.15026414f, -0.03124968f, -0.06220121f, -0.03408793f, -0.00760332f, 0.08210596f, 0.03624951f, 0.13849942f, 0.01952996f, 0.04033417f, -0.04406305f, 0.10446391f, 0.13754036f, -0.00391782f, -0.10501451f, 0.09190064f, -0.02800555f, 0.12155730f, -0.03360980f, 0.13572289f, 0.12230565f, -0.30566043f, 0.02978523f, 0.07042622f, 0.01240740f, -0.05324022f, -0.09247229f, 0.00111222f, -0.00459117f, 0.02933289f, -0.03214724f, 0.00636439f, -0.19228035f, 0.01058303f, 0.05044092f, 0.00926652f, 0.06281428f, 0.07668415f, 0.08166402f, 0.01283321f, 0.12245454f, -0.04745871f, -0.03112746f, 0.02696110f, -0.07371907f, -0.02185166f, 0.02984585f, -0.17683287f, -0.03154362f, -0.02728310f, -0.19534519f, 0.02108627f, 0.04289894f, -0.04190224f, 0.08137108f, -0.03129152f, 0.06273035f, -0.14569351f, 0.07936951f, 0.04325419f, 0.00055163f, 0.00392678f, -0.08623922f, -0.03706798f, 0.03969953f, 0.07863621f, -0.00549689f, -0.22015686f, 0.00570692f, -0.05021251f, -0.02391299f, 0.04659934f, 0.04126406f, 0.05832577f, 0.12375791f, -0.05733753f, -0.02357807f, 0.06792965f, 0.21937715f, -0.01177241f, -0.03014701f, -0.07864780f, -0.07094850f, 0.07848097f, 0.11954140f, -0.03426909f, 0.04929914f, -0.05902015f, 0.07720176f, -0.09070309f, 0.10146882f, 0.06062486f, 0.03521819f, -0.05511522f, 0.00642472f, -0.34701937f, -0.04895288f, -0.20375024f, -0.19550930f, -0.03148064f, -0.07086463f, -0.01707455f, 0.04701165f, -0.06834447f, -0.33784610f, 0.02161204f, -0.06597756f, 0.03271748f, -0.09481189f, -0.03952305f, -0.07667109f, -0.18359934f, -0.13136603f, 0.00303632f, -0.00528463f, -0.17344071f, -0.02747145f, -0.11000517f, -0.14152847f, -0.06199589f, 0.08576987f, 0.04152286f, 0.04940119f, -0.01417235f, -0.01501021f, -0.07182746f, -0.00853456f, 0.07174322f, -0.01218193f, -0.12472215f, 0.04264995f, 0.04617213f, -0.07204715f, 0.00890536f, -0.22967546f, 0.03681332f, 0.01753469f, 0.03891103f, 0.10257033f, -0.16141157f, -0.08908667f, 0.03369252f, -0.06190490f, 0.06131032f, 0.01138383f, -0.07728969f, 0.06587811f, -0.05208557f, 0.01651689f, 0.09194606f, -0.04814605f, 0.19311486f, -0.02527123f, -0.12658308f, -0.06962392f, -0.30553809f, 0.04822631f, 0.06636657f, 0.00418268f, 0.06439294f, 0.00843285f, 0.06418300f, -0.00167075f, -0.20665425f, 0.06257810f, -0.07214398f, -0.10300119f, 0.14290503f, -0.14957143f, -0.07832501f, -0.05643439f, -0.02862794f, -0.07388836f, 0.10118642f, 0.11048479f, -0.05257516f, -0.19840014f, 0.00509800f, 0.06022669f, -0.00717462f, -0.30734000f, 0.01982031f, -0.01321684f, 0.02199938f, 0.15458064f, -0.17131305f, 0.08640701f, 0.10209441f, -0.06123960f, -0.04350832f, -0.02197361f, -0.14272839f, -0.06457356f, 0.11059451f, 0.06463373f, -0.04230224f, -0.02395013f, -0.10720341f, -0.03194873f, 0.02299258f, 0.01854974f, -0.06140959f, 0.04809155f, 0.00910862f, -0.16325410f, 0.04007572f, 0.04676035f, 0.10505298f, 0.03125308f, 0.05285465f, -0.00640618f, -0.19133368f, 0.00214138f, -0.01583401f, 0.09169123f, 0.03009070f, 0.05058889f, -0.14366503f, 0.07562014f, -0.04124288f, -0.14830777f, 0.08989140f, 0.04984801f, 0.06666314f, 0.05844815f, -0.08555556f, -0.00696729f, 0.07051311f, -0.14306778f, 0.14082678f, 0.04919766f, -0.09203104f, 0.03459229f, 0.11113118f, 0.15670697f, -0.00231493f, 0.05071404f, 0.04423291f, -0.04248894f, -0.02082585f, -0.21646401f, -0.02733861f, -0.02115894f, 0.07455848f, -0.24323855f, 0.01943307f, 0.00681144f, -0.09879501f, 0.07243954f, 0.15842502f, 0.03963846f, -0.18615517f, 0.06741883f, 0.04848013f, 0.01032876f, -0.07873224f, 0.02417463f, -0.11955173f, -0.02754043f, -0.01889490f, 0.00234280f, -0.04111010f, 0.15521552f, -0.03815904f, -0.09010462f, 0.06695226f, -0.13477829f, -0.02705169f, -0.16651133f, 0.01907068f, 0.05875137f, -0.02264269f, -0.04869065f, 0.04523170f, -0.02930512f, 0.11067856f, -0.06995192f, 0.05270570f, 0.10609766f, 0.03298698f, -0.06644273f, -0.05511257f, 0.03696312f, -0.10203727f, 0.05775947f, -0.04624061f, -0.01811309f, 0.00097582f, -0.04569227f, 0.02822274f, 0.02578497f, 0.07982288f, 0.01073979f, 0.05225709f, 0.03817745f, -0.09224231f, 0.06102566f, -0.00335771f, 0.02458508f, -0.07079861f, 0.01907928f, 0.07628796f, -0.01613929f, 0.02094380f, 0.00000840f, -0.03810699f, 0.08141386f, 0.05842059f, 0.02439677f, -0.02481139f, 0.09253235f, -0.03638433f, -0.05397724f, 0.00655913f, 0.01539714f, 0.06260548f, 0.03891919f, -0.02820434f, -0.06431505f, -0.03720218f, -0.02038785f, -0.02114201f, 0.07690538f, 0.11169562f, -0.05259766f, -0.06924225f, -0.02309101f, -0.05059395f, -0.03782470f, 0.06129629f, -0.04241863f, 0.07004258f, -0.01910035f, -0.09455789f, 0.02975820f, 0.05620615f, 0.10747483f, -0.15484786f, -0.02699980f, 0.07900163f, -0.06153108f, 0.05423754f, -0.06791947f, -0.01888447f, 0.02837406f, 0.04834069f, -0.07402211f, 0.05982718f, 0.05460527f, 0.13245343f, -0.01410973f, 0.02838977f, -0.00122327f, 0.07829469f, 0.13522419f, -0.00261154f, 0.02584344f, 0.03373944f, -0.06772266f, -0.06873738f, -0.02382352f, -0.04345090f, 0.08258986f, 0.01776695f, -0.02366267f, 0.00920616f, 0.04380957f, 0.01431760f, -0.05696373f, 0.05168923f, 0.09048486f, 0.14083537f, 0.04081580f, -0.07131315f, 0.03160013f, -0.02789214f, 0.02350528f, 0.03063481f, -0.05143220f, 0.05399264f, 0.01110393f, -0.01714208f, 0.04636047f, 0.07042631f, 0.02746499f, -0.09848703f, 0.07115341f, -0.11470851f, 0.01503918f, -0.03806219f, -0.10801810f, -0.17312279f, 0.01299082f, 0.02946383f, -0.02111502f, -0.02398684f, -0.01758771f, -0.04712592f, 0.07030418f, -0.13303335f, -0.01452907f, -0.07277746f, -0.01751164f, 0.00966230f, -0.12419306f, -0.01009802f, 0.03594928f, 0.01919746f, 0.06312428f, -0.07830382f, 0.01801211f, -0.00264317f, -0.02628834f, 0.05062676f, -0.03959056f, -0.01569529f, -0.00938394f, -0.05044426f, -0.04533810f, -0.01227890f, -0.02770174f, 0.04681889f, -0.02415258f, 0.03639981f, -0.00228206f, -0.03852189f, 0.01516885f, 0.03363116f, -0.02031942f, 0.08410233f, -0.07784631f, -0.06822773f, 0.06482954f, 0.03699687f, 0.04655314f, 0.02256116f, -0.01628753f, -0.04007002f, -0.02687564f, 0.04091300f, -0.03181089f, 0.08892143f, 0.02924384f, 0.05494415f, -0.01207448f, -0.09785235f, -0.04542237f, -0.01097573f, -0.01236338f, -0.03537393f, -0.05395499f, 0.01381629f, -0.02088220f, 0.08775273f, 0.06460789f, -0.05682120f, -0.13198954f, 0.01131469f, -0.01402761f, 0.04024953f, 0.00411940f, 0.09689361f, 0.01593986f, -0.01002089f, -0.00864514f, 0.01421611f, -0.04008634f, 0.00940321f, -0.13060342f, 0.00950029f, 0.08078466f, 0.10538377f, 0.12093069f, 0.02161760f, 0.09803832f, -0.01792368f, -0.00047033f, 0.00884582f, -0.00901717f, -0.10720611f, -0.08729273f, -0.05248890f, -0.05201147f, 0.01550489f, 0.01387592f, -0.02046334f, -0.01419056f, -0.02665938f, 0.08132586f, 0.02265944f, -0.13592966f, -0.12450597f, -0.10282770f, -0.05956367f, 0.03046624f, -0.04056868f, 0.01908928f, -0.12494408f, 0.02509555f, -0.08428797f, 0.02666613f, 0.04548601f, 0.06715258f, 0.01581973f, 0.08593310f, -0.04518998f, -0.04751918f, 0.00245990f, -0.00773527f, -0.06313489f, 0.03293170f, -0.03552473f, 0.04600181f, 0.03829340f, 0.00182436f, 0.10464399f, -0.04942419f, -0.06242786f, 0.07695474f, 0.00487849f, -0.12005843f, 0.12611970f, -0.00302098f, 0.07476928f, 0.04513745f, 0.03989851f, -0.03480082f, -0.08332478f, 0.00751910f, 0.06928018f, -0.03476212f, 0.01197895f, 0.01437760f, -0.05740380f, 0.03238800f, -0.03970160f, 0.05339673f, -0.02093183f, 0.04586861f, 0.01309853f, 0.03071640f, 0.07516307f, 0.00921959f, -0.03170918f, -0.06317545f, -0.03846749f, 0.02964297f, -0.11502218f, -0.10403714f, -0.00107312f, -0.09207137f, -0.01390394f, -0.08593731f, -0.07190614f, 0.02003280f, 0.02287807f, -0.01150065f, -0.18637548f, -0.09724925f, 0.11154591f, 0.02958060f, -0.08652390f, -0.04437910f, 0.04369646f, -0.01427405f, -0.01322465f, 0.08674326f, 0.03028130f, 0.10641255f, 0.00910450f, -0.00103099f, 0.08113665f, 0.04203149f, -0.04241951f, -0.03272082f, 0.02663441f, 0.09320566f, -0.02581845f, 0.02814585f, -0.02359779f, 0.09739353f, 0.06016216f, 0.00101948f, -0.00392981f, 0.08676029f, 0.01678195f, 0.12504244f, -0.10242865f, 0.02766545f, -0.04325838f, -0.08445822f, 0.07681239f, -0.01361367f, 0.09325570f, 0.01144520f, 0.00717524f, -0.05329351f, 0.12434357f, 0.07234900f, -0.02201831f, 0.07499763f, 0.02055367f, 0.03932425f, -0.10027556f, -0.00547233f, 0.06363297f, -0.04390316f, -0.04494993f, -0.01386424f, 0.01015750f, -0.08777498f, 0.09712091f, -0.10465933f, -0.01469678f, -0.00893063f, -0.04679544f, -0.17616826f, -0.03536497f, -0.02553063f, 0.04323283f, 0.00620260f, 0.02646576f, -0.05932749f, 0.05263635f, -0.05140584f, 0.04314090f, -0.07163092f, -0.07231417f, 0.02704552f, -0.03035020f, -0.01895057f, -0.00456288f, 0.02412245f, 0.00588635f, 0.02217743f, -0.03186895f, 0.01996203f, 0.05819923f, 0.12067932f, 0.00053700f, 0.08584686f, -0.07479335f, 0.03471214f, -0.04160975f, -0.04453157f, 0.07062750f, -0.11145375f, 0.05653184f, 0.04297517f, -0.00467181f, 0.01630625f, -0.00096936f, -0.03338151f, -0.02703793f, 0.17828405f, 0.05193932f, 0.05990654f, -0.01733682f, -0.04903621f, -0.05183865f, -0.07722013f, -0.03815670f, -0.09855681f, -0.09487657f, 0.01442353f, -0.08968925f, -0.11011749f, 0.06308676f, -0.06296756f, -0.01846942f, 0.03519475f, -0.03657016f, -0.07914883f, 0.00457793f, -0.00075074f, 0.10690708f, 0.01037224f, 0.07477070f, -0.06792282f, -0.02515451f, -0.08238936f, 0.07502040f, 0.03384427f, 0.12261050f, -0.02337338f, -0.09455408f, -0.03993956f, 0.03267924f, -0.01190070f, 0.05825899f, 0.00030434f, 0.04168669f, 0.14867866f, 0.03887779f, 0.05106156f, 0.06890023f, 0.07619500f, 0.04957299f, 0.07816023f, 0.05857178f, 0.11650282f, 0.04413109f, -0.09423308f, -0.06799570f, -0.10695308f, 0.08921696f, -0.00554689f, 0.08541716f, 0.05224970f, 0.03072193f, 0.10652746f, -0.00075909f, -0.03263268f, -0.02191572f, -0.07813755f, -0.00952679f, -0.09699413f, -0.14736654f, -0.05087776f, -0.04988548f, -0.02822301f, 0.08120542f, -0.04484738f, -0.13942549f, -0.08538248f, 0.04116846f, 0.04291571f, 0.00927208f, 0.12144153f, 0.12154697f, -0.01139523f, -0.04009050f, -0.03790831f, 0.06732194f, -0.07788359f, -0.10749242f, 0.00662346f, -0.02948595f, 0.03440313f, 0.05516207f, -0.01967485f, -0.05704716f, 0.13421825f, 0.02150425f, -0.13461071f, 0.03099998f, -0.05349110f, 0.01634151f, -0.06829420f, -0.02270865f, 0.01543872f, -0.00798850f, -0.01517406f, 0.02490803f, 0.10762119f, 0.06080901f, 0.06181715f, 0.00412687f, -0.01987651f, 0.04542156f, 0.01331131f, -0.07285818f, -0.05128951f, 0.08696153f, 0.00191939f, 0.05969814f, -0.08179493f, 0.12202320f, -0.03096526f, 0.01313518f, 0.00891886f, 0.09102865f, 0.00433995f, -0.14246796f, 0.03069185f, 0.02148794f, -0.00437419f, -0.11802373f, 0.10414790f, -0.02593704f, 0.06997415f, -0.04926099f, -0.08729443f, 0.04781228f, 0.08278278f, 0.13199686f, 0.00173571f, 0.09925915f, 0.02171057f, -0.01382726f, -0.02962511f, 0.00171075f, 0.05844626f, 0.01412927f, 0.01796815f, -0.01943543f, -0.08102673f, 0.06492859f, 0.09151670f, 0.04049212f, 0.08582640f, 0.31648684f, 0.03780714f, 0.01377860f, 0.09097020f, 0.00405647f, 0.06699914f, 0.03579397f, -0.02436232f, 0.05748504f, 0.08889723f, -0.04576640f, 0.10423095f, -0.03432871f, -0.01382168f, 0.09067207f, 0.04771087f, 0.01266646f, 0.01025434f, 0.13267520f, 0.01504109f, 0.02669751f, 0.07779216f, 0.10813760f, 0.08856464f, 0.06879983f, 0.02069671f, 0.04869571f, -0.04452166f, 0.01101212f, -0.02438120f, 0.09848500f, 0.02085739f, 0.03120113f, -0.07265830f, 0.12333966f, 0.04127476f, 0.06460347f, -0.01205239f, 0.08055436f, 0.02803482f, -0.09806965f, 0.10353681f, -0.06199922f, 0.21676953f, 0.06805217f, -0.03028008f, -0.02603570f, 0.00488116f, 0.11366427f, -0.00737344f, 0.01465081f, 0.02037276f, 0.13669980f, 0.09602965f, -0.03453136f, -0.04647574f, 0.03312624f, 0.04337463f, 0.00191215f, 0.11811482f, 0.07551063f, 0.02167010f, 0.11972511f, 0.03254192f, 0.17758876f, 0.06502543f, -0.04759602f, -0.03794258f, 0.05632449f, -0.02379132f, 0.09514057f, -0.00260404f, -0.07184742f, -0.12464386f, 0.05988113f, -0.04007336f, -0.02535562f, -0.09503321f, 0.13585792f, -0.09854006f, 0.17770357f, 0.04350925f, 0.12899993f, 0.05283240f, 0.02783475f, -0.02537427f, -0.04413768f, 0.06706288f, 0.03564131f, 0.05419810f, 0.00659272f, -0.00875986f, 0.02124754f, -0.01780031f, -0.01293308f, -0.01214472f, 0.04820891f, 0.08576457f, 0.10936043f, 0.05545626f, -0.00907238f, -0.10315534f, 0.05357490f, 0.09932377f, 0.07124840f, 0.07541829f, -0.04999272f, -0.07619103f, 0.09266342f, 0.18064316f, 0.01801663f, -0.03489926f, 0.01071697f, -0.06790961f, 0.02140640f, 0.09908704f, 0.05807170f, 0.10612685f, 0.08107978f, -0.01616831f, 0.08092660f, -0.06664348f, -0.01698382f, 0.05914882f, 0.14694622f, -0.08511536f, -0.04862261f, -0.01658124f, 0.02091791f, 0.00603784f, -0.10876722f, 0.01691650f, -0.09422389f, -0.00025091f, 0.03544586f, 0.16101789f, 0.12117733f, 0.05107399f, -0.06521972f, 0.00630630f, 0.14703053f, 0.13330585f, 0.19951855f, 0.19532235f, -0.01238490f, -0.02304160f, 0.07503426f, 0.15753017f, 0.24685031f, -0.02775029f, 0.15710169f, -0.03393816f, 0.09446175f, -0.01308232f, -0.00491898f, -0.01122762f, 0.09807316f, 0.24558397f, -0.11749429f, -0.01905720f, 0.19966751f, 0.07010768f, 0.03233360f, 0.01808039f, 0.14878179f, -0.08791690f, 0.09090281f, 0.09160621f, -0.00927871f, 0.16627993f, -0.21364716f, 0.27021691f, -0.08777171f, 0.06791160f, -0.04602321f, -0.09326852f, -0.08886590f, 0.06913830f, -0.08337564f, 0.20304859f, 0.05759869f, 0.03559104f, -0.04712734f, 0.07616488f, -0.04050913f, 0.05313013f, 0.03008200f, 0.11061638f, 0.01414575f, 0.04898877f, -0.05314744f, 0.03987370f, 0.12949608f, 0.04032627f, -0.00208943f, 0.02688237f, -0.01002746f, 0.10806762f, 0.08458100f, 0.13754161f, -0.06836556f, 0.00999534f, 0.01466519f, 0.10628806f, 0.10084377f, 0.03514658f, 0.00914683f, -0.01600057f, -0.10042249f, 0.00177299f, -0.00712542f, -0.03109842f, -0.08740997f, -0.06042817f, 0.05875732f, 0.15980624f, -0.05611768f, -0.04485876f, -0.00523930f, 0.11991534f, 0.07794157f, 0.06864190f, 0.02715614f, 0.15707673f, 0.04073718f, -0.05008644f, 0.01171126f, -0.00842295f, 0.05232649f, -0.00182322f, 0.01519318f, -0.09963145f, -0.04832615f, 0.03396892f, 0.16108419f, -0.04476086f, 0.04886585f, 0.06459025f, 0.06539655f, 0.01946769f, -0.00623964f, -0.01758742f, -0.01604670f, -0.01038686f, 0.00924929f, 0.05933531f, 0.06496245f, -0.05204807f, 0.09840524f, 0.13669921f, 0.17907672f, 0.12537111f, -0.11116278f, 0.14631976f, 0.03507753f, 0.03987384f, -0.01859108f, 0.09750942f, -0.00427781f, -0.02899123f, -0.01338588f, -0.15181805f, 0.09126157f, 0.01426377f, -0.00873379f, 0.13695814f, 0.01266787f, 0.01529676f, -0.03870744f, -0.01207161f, 0.02047429f, 0.12936200f, -0.02169396f, 0.08600605f, 0.03800954f, 0.04635615f, -0.06207989f, 0.04155941f, 0.09734900f, 0.01185994f, 0.06234712f, 0.06987116f, 0.02924291f, -0.00472094f, -0.04259405f, -0.05216080f, -0.03554041f, 0.05896512f, 0.02872591f, 0.12519510f, 0.15397874f, 0.00935149f, 0.02054208f, 0.10188203f, 0.04113941f, 0.09105790f, -0.00261418f, 0.08391067f, 0.13739073f, 0.05893860f, 0.00836979f, -0.01182197f, 0.02280747f, 0.04426034f, 0.16851918f, -0.08156046f, -0.00264396f, 0.04845108f, 0.17832711f, -0.03786210f, 0.04289974f, 0.00303414f, -0.10481191f, 0.05465828f, -0.03676024f, 0.16216578f, -0.03068098f, -0.01537642f, 0.07430110f, -0.00614113f, 0.22849101f, 0.16149844f, -0.01191672f, 0.04134133f, 0.02666269f, 0.07981942f, -0.05647035f, 0.14234944f, 0.08343209f, -0.00379348f, -0.10917355f, -0.02105319f, 0.02270577f, 0.05981627f, 0.09363988f, 0.15503198f, 0.04604269f, 0.17575689f, 0.11765878f, 0.11671107f, 0.09308220f, -0.03005522f, 0.00306419f, 0.06023023f, 0.13923597f, 0.23479769f, -0.02968645f, 0.13670576f, 0.08131030f, -0.01593006f, 0.00778596f, -0.08321352f, 0.00703619f, -0.01018670f, -0.00831503f, 0.04277137f, -0.04557540f, -0.00623845f, -0.02138150f, 0.05436577f, -0.01340915f, -0.08973701f, 0.13807508f, 0.06390862f, 0.16415597f, 0.07600924f, 0.07723358f, 0.00111759f, 0.09179591f, 0.14494318f, 0.03256730f, 0.02414141f, -0.05237917f, 0.03415099f, -0.01333084f, 0.02168938f, 0.02416257f, -0.02716273f, 0.11210723f, 0.06604266f, 0.04264376f, 0.04112414f, -0.01990112f, 0.02392920f, 0.06383017f, 0.22357005f, 0.08425159f, 0.03046196f, 0.07651327f, 0.02388358f, -0.06448057f, 0.09336044f, 0.02801434f, 0.02785505f, -0.00810747f, 0.04419255f, 0.03999544f, -0.12508458f, 0.10411190f, 0.11125937f, 0.05766664f, 0.06840142f, -0.02578527f, 0.02945047f, -0.04079070f, 0.05360252f, 0.05105298f, 0.09222469f, 0.11568687f, -0.08233599f, 0.11971099f, -0.09310260f, -0.01437340f, -0.02166723f, -0.08377305f, -0.01239768f, 0.00151062f, -0.02020778f, 0.01000061f, 0.14574121f, 0.08797882f, -0.04139032f, 0.03723595f, 0.06018329f, -0.04473844f, 0.13204519f, -0.01007129f, 0.00117213f, 0.07864048f, 0.04657723f, 0.06691793f, 0.08411123f, 0.03969191f, 0.13439520f, 0.08500006f, -0.05548562f, 0.15722866f, -0.02035209f, 0.03422512f, -0.01168697f, 0.06853629f, 0.01652254f, 0.03504477f, 0.15321457f, 0.03766934f, 0.13826780f, 0.05094466f, -0.04255126f, -0.08344447f, 0.07483400f, -0.01246496f, 0.04388585f, -0.10871994f, -0.01862025f, 0.08140658f, -0.03433745f, -0.00687254f, -0.04413484f, -0.01884131f, 0.00664336f, 0.13080569f, 0.03251860f, 0.07161229f, 0.00675222f, 0.12807459f, -0.09765867f, 0.00404642f, 0.03632572f, 0.06769107f, -0.02524901f, 0.10688549f, -0.08698175f, -0.10393047f, -0.05018552f, 0.06398412f, 0.02536461f, -0.08656431f, -0.03728855f, -0.12040331f, -0.11210964f, -0.04974401f, 0.07413578f, 0.10632219f, 0.09888095f, -0.03711563f, -0.03035609f, 0.08590390f, 0.15777975f, 0.07715986f, -0.00724279f, -0.00578255f, 0.09750064f, -0.01993179f, -0.02908804f, -0.07835156f, 0.02571671f, 0.26258647f, 0.06000885f, -0.01808420f, 0.24207442f, 0.02837218f, -0.10814516f, -0.05493485f, 0.09604898f, 0.07511079f, -0.01269792f, -0.00292257f, -0.02128089f, 0.13012706f, 0.16559488f, 0.15314133f, 0.14490236f, 0.12014873f, 0.02717099f, -0.01471698f, -0.02979197f, 0.04136648f, 0.21108969f, -0.03865642f, -0.04204096f, 0.09690566f, 0.11888365f, 0.01941639f, -0.01551642f, 0.00452711f, 0.04244284f, 0.02667006f, 0.11686113f, -0.02792694f, -0.06853170f, 0.07944118f, -0.07343549f, -0.04278137f, 0.11863812f, 0.00035261f, 0.18887018f, 0.17810617f, -0.04265832f, 0.19984561f, -0.03348185f, -0.08886487f, -0.05173483f, 0.03435492f, 0.04684879f, -0.02206816f, 0.05670456f, 0.24128316f, -0.05220901f, 0.09992447f, 0.00601192f, -0.03314705f, 0.03678552f, 0.00097209f, -0.02774089f, -0.01481255f, 0.24258474f, 0.06900186f, 0.04668906f, -0.03235818f, 0.04589239f, -0.01114635f, 0.02061097f, 0.02572638f, -0.03946822f, 0.30839816f, -0.00467103f, -0.14033115f, -0.06250487f, 0.05951697f, 0.10334357f, -0.07294553f, 0.23713638f, 0.26160026f, -0.06135742f, -0.03737751f, 0.10596041f, 0.15149160f, 0.24813305f, 0.03077175f, 0.03774805f, -0.12071171f, 0.05542077f, 0.06819472f, -0.01637114f, 0.07031676f, 0.02712549f, -0.04071910f, 0.06463026f, 0.01821930f, -0.09968743f, 0.03096548f, 0.06029862f, 0.26566625f, -0.04662821f, 0.06069729f, 0.05241798f, -0.02290859f, -0.08786447f, 0.03837730f, 0.10506761f, -0.03576272f, 0.00707895f, -0.14919499f, 0.03945196f, 0.05136362f, 0.10849139f, -0.06349166f, 0.06855105f, 0.30469060f, 0.01932163f, 0.08442628f, 0.04006704f, 0.06306059f, 0.02964380f, 0.02159175f, -0.04420517f, 0.04508092f, -0.10474047f, -0.03970272f, -0.00022932f, 0.06738152f, 0.05742743f, -0.06024352f, 0.05150007f, 0.08024019f, 0.06225270f, -0.01072271f, -0.04878185f, -0.07805095f, 0.15252091f, 0.08735526f, -0.06200421f, -0.08645297f, -0.11936335f, -0.02442729f, -0.08400009f, 0.13282149f, -0.03061120f, 0.01906131f, -0.07341758f, 0.00213826f, -0.07067357f, -0.05948506f, 0.14973167f, -0.03668341f, -0.05941374f, -0.00922557f, 0.10664152f, -0.05312487f, 0.10700417f, 0.03119426f, -0.11244670f, 0.20786440f, 0.09983020f, 0.14322844f, 0.19505130f, -0.11248404f, -0.00264059f, 0.29771954f, 0.24701436f, 0.18406111f, 0.12588564f, 0.15853094f, -0.00017062f, 0.05683776f, 0.04750875f, -0.12719794f, 0.04580403f, 0.21226683f, 0.14501479f, -0.00831147f, 0.03915472f, 0.11063042f, -0.00887949f, 0.11613525f, -0.00985129f, -0.02205813f, -0.10033646f, 0.07413199f, 0.16384923f, -0.02047716f, -0.01091596f, 0.06182553f, -0.05816859f, -0.05172833f, -0.00228410f, -0.02541796f, -0.02037876f, -0.05358395f, 0.23521020f, 0.02555530f, 0.14989562f, -0.13681096f, 0.02210270f, 0.03045543f, 0.12902576f, -0.02680723f, 0.17450027f, 0.15340061f, 0.04402053f, -0.01140271f, -0.08622161f, -0.00285060f, 0.14484048f, 0.10863343f, 0.02190684f, -0.05921075f, 0.05037457f, 0.06899928f, 0.27438265f, 0.02556531f, 0.21950589f, -0.06502815f, -0.11465973f, -0.09638581f, 0.08484758f, 0.01847834f, -0.00045858f, 0.05193407f, -0.04621590f, -0.12407693f, -0.12796225f, -0.04931281f, 0.01093917f, 0.11088168f, -0.00944751f, -0.08070319f, 0.24160272f, -0.00187550f, -0.06185047f, 0.09899686f, 0.33966282f, 0.11766746f, 0.18841805f, 0.21194629f, 0.22497036f, 0.05956357f, 